{"version": "0.5.4", "metadata": {"date": {"year": 2025, "month": 6, "day": 25, "hour": 7, "minute": 33, "second": 24}, "loudness": -37.744815826416016, "gain": 1.0}, "architecture": "WaveNet", "config": {"layers": [{"input_size": 1, "condition_size": 7, "head_size": 8, "channels": 16, "kernel_size": 3, "dilations": [1, 2, 4, 8, 16, 32, 64, 128, 256, 512], "activation": "Tanh", "gated": false, "head_bias": false}, {"input_size": 16, "condition_size": 7, "head_size": 1, "channels": 8, "kernel_size": 3, "dilations": [1, 2, 4, 8, 16, 32, 64, 128, 256, 512], "activation": "Tanh", "gated": false, "head_bias": true}], "head": null, "head_scale": 0.02}, "weights": [-0.007486820220947266, 0.5364435911178589, -0.8230451345443726, -0.7359390258789062, -0.3851543664932251, 0.26815736293792725, -0.019813179969787598, 0.7928894758224487, -0.08874404430389404, 0.2646125555038452, -0.30221307277679443, -0.1965653896331787, -0.9553484916687012, -0.6622821092605591, -0.41222310066223145, 0.03704357147216797, 0.05706171691417694, 0.08660583198070526, -0.09785236418247223, -0.06285364180803299, 0.05242587625980377, 0.11985617876052856, -0.02970469743013382, 0.10800948739051819, -0.0232648104429245, 0.015272945165634155, 0.13069424033164978, -0.13389767706394196, -0.09086596965789795, -0.036541253328323364, -0.056262776255607605, 0.12470775842666626, -0.09355667233467102, -0.06644332408905029, -0.10084006190299988, -0.13518093526363373, -0.08425568044185638, 0.12407228350639343, 0.06440606713294983, 0.0699564516544342, 0.007590934634208679, -0.07399948686361313, 0.024419710040092468, -0.13476721942424774, -0.10429345071315765, -0.0744103416800499, 0.09106804430484772, 0.08462817966938019, -0.06401299685239792, -0.005208045244216919, 0.09231263399124146, 0.1434907615184784, 0.05728501081466675, 0.019498974084854126, 0.09677636623382568, -0.08498629927635193, 0.02689644694328308, -0.11190570890903473, -0.10003836452960968, -0.07456241548061371, 0.06530885398387909, 0.0580468475818634, -0.08549872040748596, 0.04360540211200714, 0.07923728227615356, -0.01821790635585785, 0.005511030554771423, 0.03344368934631348, 0.08954364061355591, 0.13859209418296814, -0.11122992634773254, -0.052895352244377136, 0.05672609806060791, 0.11959078907966614, 0.12560361623764038, 0.12735721468925476, 0.028725281357765198, -0.12551343441009521, 0.013277977705001831, -0.0902983546257019, -0.13451598584651947, 0.1282428503036499, 0.1097484827041626, -0.14398075640201569, 0.02701595425605774, -0.024315111339092255, -0.023752354085445404, -0.0660715103149414, 0.0555059015750885, -0.08549164235591888, 0.05291290581226349, 0.07299268245697021, 0.10332715511322021, 0.053969427943229675, -0.14285597205162048, -0.0936313271522522, 0.07206991314888, 0.030210047960281372, -0.11259542405605316, -0.08311238139867783, 0.13578546047210693, 0.09725722670555115, -0.06293480843305588, -0.03632757067680359, -0.13749569654464722, -0.0025943368673324585, -0.10869468748569489, -0.11133574694395065, -0.007952943444252014, 0.021671578288078308, -0.0591106042265892, 0.08564667403697968, -0.08783505111932755, 0.13096758723258972, 0.09891451895236969, -0.1217174082994461, -0.03592335432767868, 0.006512895226478577, 0.021059006452560425, 0.034233152866363525, 0.05664214491844177, 0.00864584743976593, -0.07042644917964935, 0.06829895079135895, -0.13845564424991608, -0.08554983884096146, -0.036132000386714935, -0.07030875235795975, -0.05049409717321396, -0.11830219626426697, -0.030702784657478333, 0.03085307776927948, -0.09403098374605179, -0.0074073076248168945, 0.10332415997982025, -0.01483793556690216, 0.004011467099189758, -0.012451842427253723, 0.029211238026618958, 0.09177552163600922, 0.13672322034835815, 0.09166242182254791, 0.1370360255241394, -0.010438725352287292, -0.12966154515743256, -0.06842715293169022, 0.09828020632266998, -0.0009356588125228882, -0.0717424601316452, -0.1106075793504715, -0.13507860898971558, -0.12182208895683289, -0.029276959598064423, 0.07915559411048889, 0.07803481817245483, -0.139203742146492, 0.09003518521785736, -0.11294551193714142, -0.030514448881149292, -0.05852493643760681, -0.027801617980003357, -0.028339624404907227, -0.12952131032943726, -0.124626524746418, -0.02258586883544922, 0.0018665939569473267, -0.06556893140077591, 0.054371848702430725, -0.12991224229335785, -0.009740948677062988, 0.1269332468509674, -0.058874137699604034, 0.13033726811408997, 0.05227239429950714, -0.13025900721549988, 0.09132198989391327, -0.016655758023262024, -0.0644332766532898, 0.11542001366615295, -0.11663849651813507, 0.01548813283443451, -0.030219770967960358, 0.10307328402996063, 0.040291041135787964, 0.06935496628284454, 0.050974100828170776, -0.03470953553915024, -0.030354976654052734, -0.1189459040760994, 0.07820846140384674, 0.11460086703300476, 0.09875935316085815, -0.10181258618831635, 0.006437435746192932, -0.10174847394227982, -0.07945554703474045, -0.08410629630088806, 0.04932664334774017, -0.08601266145706177, -0.0031490474939346313, 0.006072014570236206, 0.09304332733154297, -0.10910765826702118, -0.09908950328826904, -0.08381126821041107, 0.10102668404579163, -0.051884301006793976, 0.12174710631370544, 0.05219355225563049, 0.018276885151863098, -0.0010744482278823853, -0.02853287011384964, 0.018109500408172607, -0.03295871615409851, -0.0010141730308532715, 0.01841646432876587, -0.11290158331394196, -0.0756518542766571, 0.11655154824256897, -0.11713667213916779, -0.010364323854446411, 0.14278429746627808, 0.052140071988105774, 0.004086628556251526, -0.12508437037467957, 0.07150164246559143, -0.1028088703751564, -0.0409722775220871, -0.04842761158943176, -0.021374575793743134, 0.0015788078308105469, 0.11905071139335632, 0.0180189311504364, 0.1292821168899536, 0.08829309046268463, -0.09125222265720367, 0.06473599374294281, -0.1020316556096077, -0.06117388606071472, 0.04245294630527496, 0.04765912890434265, 0.10828608274459839, -0.04646455496549606, 0.00023105740547180176, 0.074308380484581, -0.13958773016929626, 0.10435326397418976, -0.11935596913099289, 0.00198933482170105, -0.024539805948734283, -0.07601869106292725, 0.01907724142074585, 0.11935544013977051, -0.04219269007444382, -0.08569236099720001, -0.05338163673877716, -0.14305993914604187, 0.065153107047081, -0.06932009756565094, -0.09632226824760437, -0.08315307646989822, 0.08298775553703308, 0.07643736898899078, 0.11078223586082458, 0.05235457420349121, -0.04820293188095093, -0.04033486545085907, 0.042641639709472656, 0.11865049600601196, 0.03924424946308136, -0.06829264760017395, -0.06784982979297638, -0.13646669685840607, 0.031183838844299316, -0.0809997171163559, -0.12868788838386536, 0.12656620144844055, -0.09373442828655243, -0.016420066356658936, 0.04135178029537201, 0.004598349332809448, -0.09712211042642593, -0.11667118966579437, 0.11504894495010376, 0.023503735661506653, 0.11974599957466125, -0.048387810587882996, 0.04251541197299957, -0.033006563782691956, -0.006418853998184204, -0.08790795505046844, 0.04881510138511658, 0.04563461244106293, -0.0029774755239486694, -0.032461829483509064, -0.08897397667169571, 0.09981589019298553, -0.10744836181402206, 0.059130117297172546, -0.04853401333093643, -0.06963825970888138, 0.0259295254945755, -0.07497715950012207, 0.03325606882572174, 0.02834513783454895, -0.10716912150382996, 0.024031996726989746, 0.06147758662700653, 0.05713328719139099, -0.01816903054714203, -0.11832614988088608, -0.0222502201795578, 0.05012954771518707, -0.05266547203063965, 0.05478781461715698, 0.09612341225147247, -0.07536608725786209, 0.0014234334230422974, 0.05968344211578369, 0.011312872171401978, 0.012056738138198853, 0.018022775650024414, -0.1134706437587738, 0.011343240737915039, 0.09994940459728241, 0.13006457686424255, 0.08483453094959259, 0.01934167742729187, 0.06740769743919373, -0.07021728903055191, -0.11961086094379425, -0.12411891669034958, 0.1439925730228424, 0.0916239470243454, -0.09977099299430847, 0.05647100508213043, 0.10899904370307922, 0.14428198337554932, 0.12620803713798523, 0.111826092004776, -0.03309072554111481, -0.05065406113862991, 0.11850818991661072, 0.08088383078575134, -0.0868593156337738, 0.1297619640827179, 0.06973794102668762, 0.0786835253238678, -0.09046737104654312, 0.0414104163646698, -0.05059932917356491, 0.11277911067008972, -0.025972187519073486, 0.056192412972450256, 0.025637507438659668, 0.06141103804111481, -0.049049876630306244, 0.07037486135959625, -0.10081559419631958, 0.03259935975074768, -0.09765762090682983, -0.14239443838596344, -0.11591111123561859, 0.11395019292831421, 0.07809177041053772, 0.1354197859764099, 0.11563187837600708, -0.12890000641345978, -0.09850044548511505, -0.023322440683841705, -0.09373747557401657, 0.10022750496864319, -0.10912032425403595, -0.07042250782251358, -0.1394432783126831, -0.08194701373577118, 0.11871439218521118, 0.11817783117294312, 0.10332226753234863, 0.11144697666168213, 0.12834301590919495, -0.03695950657129288, 0.06350882351398468, 0.12859472632408142, 0.04774957895278931, 0.14429083466529846, 0.074862539768219, 0.08972720801830292, -0.050517015159130096, 0.06925714015960693, 0.0165853351354599, -0.03447031229734421, -0.08136450499296188, -0.08099020272493362, -0.11106498539447784, 0.09689818322658539, 0.10261407494544983, -0.01642744243144989, -0.0835261270403862, 0.11155930161476135, 0.09230227768421173, 0.010729193687438965, -0.06814686208963394, 0.1326531171798706, 0.05902549624443054, -0.10957320034503937, 0.13814300298690796, 0.10960617661476135, -0.052609726786613464, 0.08114001154899597, -0.08201102167367935, -0.022619761526584625, 0.12255719304084778, 0.005963906645774841, -0.1020781472325325, -0.048242367804050446, -0.039179734885692596, -0.027846872806549072, 0.013813197612762451, 0.13348764181137085, 0.007727876305580139, -0.08911978453397751, 0.0073979198932647705, 0.06920801103115082, 0.07159723341464996, -0.13191565871238708, -0.02582811564207077, -0.10726366937160492, -0.061586759984493256, 0.052003875374794006, -0.10249846428632736, 0.05365414917469025, 0.12251058220863342, 0.009466856718063354, -0.09619921445846558, -0.0517139807343483, 0.03151814639568329, -0.1100311279296875, 0.07170839607715607, -0.13103967905044556, -0.13875073194503784, -0.14024712145328522, -0.02928079664707184, 0.09705732762813568, -0.13661247491836548, 0.11997151374816895, -0.057738326489925385, 0.04227417707443237, 0.006582215428352356, -0.13015194237232208, 0.11970332264900208, 0.0777176171541214, 0.1434709131717682, 0.07292109727859497, -0.09527274966239929, 0.12046179175376892, 0.007757335901260376, 0.06844724714756012, -0.1157340556383133, -0.04151530563831329, -0.14172181487083435, -0.05621840059757233, 0.031138107180595398, -0.11332833021879196, 0.046009644865989685, 0.07748138904571533, 0.020107567310333252, -0.0965738594532013, -0.11190775781869888, -0.04453054070472717, 0.06335815787315369, 0.14237406849861145, 0.08299829065799713, -0.016253754496574402, 0.05060712993144989, -0.1416042298078537, -0.1232789009809494, 0.06734904646873474, -0.08175498992204666, 0.06944017112255096, -0.10189253091812134, -0.07149197161197662, -0.11888926476240158, 0.07532121241092682, -0.014707297086715698, 0.11108234524726868, 0.08932650089263916, 0.0798681229352951, 0.004641339182853699, -0.04462599754333496, -0.03138355910778046, 0.01918254792690277, 0.07154950499534607, -0.1011214405298233, 0.12113931775093079, -0.015693828463554382, -0.12094702571630478, -0.0780949667096138, 0.1277124285697937, 0.1320006251335144, -0.13369694352149963, 0.10180103778839111, 0.0723360925912857, 0.08543607592582703, 0.12218597531318665, -0.0777907744050026, 0.04557830095291138, 0.059067726135253906, -0.04265078902244568, 0.04830302298069, -0.04152785241603851, 0.08923833072185516, -0.04004712402820587, -0.05380842089653015, 0.03633683919906616, 0.051195621490478516, -0.07051923871040344, 0.012759193778038025, 0.08364877104759216, -0.01436111330986023, 0.043926820158958435, -0.03481233865022659, 0.050590261816978455, -0.10455729067325592, -0.08487464487552643, -0.07326438277959824, 0.1326477825641632, -0.0388389453291893, -0.00039409101009368896, -0.06993090361356735, 0.14409074187278748, 0.14097020030021667, -0.10885746031999588, -0.11701011657714844, -0.10940685868263245, -0.0006961077451705933, -0.03679221123456955, -0.09447552263736725, -0.051769860088825226, 0.027269825339317322, -0.07541503757238388, 0.03198269009590149, -0.03309889882802963, -0.06994069367647171, 0.0198298841714859, 0.11868274211883545, -0.09758363664150238, 0.006702229380607605, -0.05322703719139099, 0.1416393518447876, -0.13694217801094055, -0.1383708268404007, 0.14222806692123413, -0.0913209319114685, 0.027672886848449707, -0.012457206845283508, -0.030405715107917786, -0.03223747760057449, 0.09171794354915619, 0.006898894906044006, -0.14052915573120117, -0.0852111428976059, -0.04920472204685211, 0.07263302803039551, -0.09340570867061615, 0.136098712682724, -0.03214820474386215, -0.02591753751039505, 0.11309686303138733, 0.07254517078399658, 0.12241563200950623, 0.083491250872612, -0.04378536343574524, -0.09576399624347687, -0.010739147663116455, 0.11945918202400208, -0.048442542552948, -0.13385431468486786, 0.059168070554733276, 0.1405085027217865, -0.041090480983257294, -0.11951490491628647, -0.13092277944087982, 0.036170899868011475, -0.010929197072982788, -0.07288862764835358, 0.029175221920013428, 0.054813459515571594, 0.11479440331459045, 0.11206111311912537, -0.021604984998703003, -0.1272721290588379, -0.13042676448822021, 0.13476648926734924, 0.06380517780780792, 0.0629178136587143, -0.12488389760255814, 0.13365885615348816, 0.13673719763755798, 0.13031664490699768, -0.1217610090970993, -0.05446194112300873, -0.09927015006542206, 0.13668271899223328, -0.06201896071434021, -0.06589797139167786, 0.07562030851840973, -0.06676945835351944, -0.07108944654464722, -0.012625426054000854, -0.013873651623725891, -0.11243585497140884, 0.12032961845397949, -0.06367043405771255, 0.051198676228523254, 0.12554246187210083, 0.07279181480407715, 0.020435288548469543, 0.12281063199043274, 0.01940275728702545, -0.06677872687578201, 0.13654327392578125, 0.034161895513534546, -0.14082738757133484, -0.041091687977313995, -0.09831805527210236, 0.1265483796596527, -0.023836754262447357, -0.13156728446483612, -0.009073540568351746, 0.09064584970474243, 0.03749896585941315, 0.04564017057418823, 0.013405099511146545, 0.05381174385547638, -0.035168133676052094, -0.05741751194000244, -0.13491354882717133, -0.10873481631278992, 0.06255626678466797, -0.08546420186758041, 0.02070760726928711, 0.04607132077217102, 0.010219663381576538, -0.09358122944831848, 0.13803410530090332, -0.08393222093582153, 0.1187177300453186, -0.11482172459363937, -0.03472018241882324, 0.07851512730121613, -0.058973535895347595, 0.12124976515769958, -0.09932683408260345, -0.12121057510375977, -0.06508456915616989, 0.023332223296165466, 0.132899671792984, -0.06890688091516495, 0.051619186997413635, -0.03618644177913666, -0.03130137920379639, 0.106131911277771, -0.11185957491397858, 0.015330567955970764, 0.1357363760471344, -0.019833743572235107, 0.11206918954849243, -0.044449739158153534, 0.11618629097938538, -0.13962210714817047, -0.020802460610866547, -0.025352373719215393, 0.0467776358127594, 0.05662758648395538, 0.1108248233795166, -0.021504275500774384, -0.005723714828491211, 0.09884399175643921, -0.039053864777088165, 0.12653115391731262, -0.09610170125961304, -0.015618741512298584, -0.007752507925033569, 0.06440484523773193, 0.09868015348911285, -0.022878050804138184, -0.11958087235689163, 0.07151813805103302, 0.04317595064640045, 0.05798029899597168, -0.08903717994689941, 0.0928950160741806, 0.1367100477218628, 0.01252436637878418, -0.13481827080249786, 0.10132351517677307, -0.10701926797628403, 0.03317917883396149, 0.020974814891815186, -0.0675552561879158, 0.05025769770145416, -0.1291002333164215, 0.03287424147129059, -0.09150293469429016, -0.015607744455337524, 0.018565967679023743, 0.12296760082244873, -0.06886637955904007, 0.09246785938739777, -0.01833575963973999, -0.06854991614818573, -0.12568910419940948, -0.13243237137794495, 0.14096161723136902, -0.035997726023197174, 0.007209494709968567, 0.039131686091423035, 0.09811088442802429, 0.12318837642669678, 0.11706024408340454, -0.10693725943565369, -0.023125305771827698, -0.0854099690914154, -0.08246752619743347, 0.03423789143562317, 0.13548216223716736, -0.11562938988208771, 0.08735373616218567, -0.07483422011137009, -0.028113245964050293, 0.11457094550132751, -0.03264486789703369, 0.013142764568328857, -0.10089665651321411, 0.12286603450775146, -0.018658488988876343, -0.10556712001562119, 0.04226352274417877, -0.10262651741504669, -0.11453291773796082, 0.008792921900749207, 0.11443710327148438, -0.040845222771167755, 0.06793491542339325, 0.12403234839439392, 0.09573346376419067, -0.0757138654589653, -0.015822261571884155, -0.045420847833156586, -0.1160651445388794, 5.963444709777832e-05, 0.10860463976860046, 0.12160664796829224, 0.013466790318489075, 0.03278239071369171, -0.062486857175827026, 0.1089521050453186, -0.060060083866119385, -0.10026448965072632, 0.022227048873901367, 0.08651383221149445, -0.1301335245370865, 0.1304764747619629, 0.05192270874977112, -0.10112474113702774, -0.031091392040252686, 0.12522438168525696, -0.1107407808303833, -0.04218658059835434, 0.047339871525764465, -0.1264519840478897, 0.07912559807300568, 0.07513457536697388, 0.0895189493894577, -0.09202200174331665, 0.14376035332679749, -0.08555775880813599, 0.14409804344177246, -0.13851937651634216, -0.12860043346881866, 0.08865159749984741, 0.015085145831108093, 0.008326739072799683, -0.07992813736200333, -0.060546062886714935, -0.04220249503850937, -0.14060722291469574, 0.007501035928726196, 0.025527387857437134, -0.00012220442295074463, 0.04661098122596741, 0.13695484399795532, 0.0383770614862442, -0.05283799767494202, -0.05940164625644684, -0.09234797954559326, -0.10005751252174377, -0.023245543241500854, -0.025528348982334137, 0.16814222931861877, -0.1615559309720993, 0.30131468176841736, -0.26521018147468567, 0.0010742545127868652, 0.33975979685783386, 0.37584224343299866, -0.21894055604934692, 0.06732642650604248, 0.04464617371559143, -0.17720927298069, -0.13058477640151978, 0.10237318277359009, -0.26282334327697754, 0.062362492084503174, 0.1635545790195465, -0.14894451200962067, 0.31395283341407776, -0.024874001741409302, 0.17148730158805847, 0.37430062890052795, -0.11553177237510681, 0.20538899302482605, -0.10810887813568115, -0.0552104115486145, -0.06405407190322876, -0.0023481249809265137, -0.1427830308675766, 0.08858993649482727, 0.014241844415664673, 0.23958781361579895, -0.07650202512741089, 0.03790232539176941, -0.1405991166830063, -0.31652775406837463, 0.15294983983039856, 0.048363566398620605, -0.1513686180114746, -0.12779167294502258, 0.09884577989578247, -0.06834235787391663, 0.2469906508922577, 0.02140909433364868, 0.14277103543281555, 0.1646777093410492, -0.0927397608757019, 0.16353192925453186, 0.27891257405281067, 0.017393290996551514, 0.07396495342254639, 0.01373356580734253, 0.26169028878211975, -0.15957482159137726, -0.20091451704502106, 0.16469934582710266, -0.3289478123188019, 0.006059706211090088, -0.17382249236106873, 0.24946925044059753, -0.3518996834754944, 0.22917214035987854, 0.37394168972969055, 0.07647737860679626, -0.025182515382766724, 0.3720492422580719, -0.1615239828824997, -0.030287623405456543, -0.16551251709461212, -0.05217468738555908, 0.08214637637138367, 0.050481438636779785, -0.07138803601264954, -0.3779042363166809, 0.01935333013534546, -0.011196047067642212, 0.056859761476516724, 0.28961536288261414, 0.36738499999046326, -0.22423969209194183, -0.023567765951156616, -0.15144039690494537, -0.34834930300712585, -0.2750293016433716, 0.35474273562431335, 0.2203764021396637, 0.2030239999294281, 0.21005120873451233, -0.30028483271598816, 0.03969353437423706, 0.351777046918869, -0.21093665063381195, 0.33623501658439636, 0.09934359788894653, 0.2659144699573517, -0.16191530227661133, 0.17424830794334412, -0.33506086468696594, -0.023999035358428955, 0.12607046961784363, 0.11334943771362305, 0.3162837326526642, 0.37140944600105286, 0.3438558280467987, 0.2537623941898346, 0.2657324969768524, -0.04876866936683655, -0.29331815242767334, -0.14031067490577698, -0.04243201017379761, -0.20424692332744598, 0.19320443272590637, 0.13267585635185242, 0.040337979793548584, 0.0603901743888855, 0.21961307525634766, 0.09105783700942993, -0.21923485398292542, -0.18147018551826477, 0.11018741130828857, 0.03406980633735657, 0.12192291021347046, -0.24967998266220093, -0.23071733117103577, 0.15330660343170166, 0.15991142392158508, -0.22617775201797485, 0.09489631652832031, -0.19521105289459229, 0.1893269419670105, 0.0784476101398468, 0.2471967339515686, -0.2464979887008667, -0.24066904187202454, 0.1690255105495453, 0.2219557762145996, 0.15316998958587646, 0.1662074625492096, -0.21056783199310303, 0.18095341324806213, -0.2360367774963379, 0.05585041642189026, -0.16375869512557983, -0.0992988646030426, 0.0442672073841095, -0.09829500317573547, -0.03955572843551636, -0.23695608973503113, -0.23571830987930298, 0.0968407690525055, -0.10581961274147034, -0.1520974040031433, -0.09864556789398193, -0.20439213514328003, -0.19985005259513855, 0.14959308505058289, 0.12706053256988525, 0.03330087661743164, -0.13656491041183472, 0.08317524194717407, 0.011231303215026855, -0.17866820096969604, 0.05379745364189148, 0.22763597965240479, -0.24590158462524414, -0.24859803915023804, 0.032031238079071045, 0.18825557827949524, -0.15212243795394897, 0.05503427982330322, 0.17574632167816162, 0.07707908749580383, 0.054102689027786255, 0.24943149089813232, 0.1628681719303131, -0.14060676097869873, 0.021609127521514893, 0.12771809101104736, 0.2204773724079132, -0.24873322248458862, 0.13537633419036865, -0.07258296012878418, -0.24480530619621277, 0.05549350380897522, -0.13610342144966125, 0.03542804718017578, -0.16231173276901245, -0.18813225626945496, -0.021212756633758545, -0.08398142457008362, 0.14621618390083313, 0.021554529666900635, 0.19513964653015137, 0.046850740909576416, -0.0803903341293335, 0.16933339834213257, 0.01366126537322998, 0.046922922134399414, -0.08040565252304077, 0.0008971989154815674, -0.04806828498840332, -0.02125433087348938, -0.19496983289718628, -0.0015374720096588135, -0.2075110673904419, -0.05378270149230957, 0.1448865532875061, -0.1738375723361969, -0.16851294040679932, -0.061044126749038696, -0.0685335099697113, 0.042321860790252686, 0.04150390625, 0.1267741322517395, -0.1722201406955719, -0.0176427960395813, 0.1398228108882904, 0.21624287962913513, -0.018236368894577026, -0.1446550488471985, 0.07186564803123474, 0.1423693299293518, -0.15618747472763062, -0.14507335424423218, 0.1104995608329773, -0.017516493797302246, -0.2361246645450592, -0.14414626359939575, 0.10138320922851562, -0.08479392528533936, 0.1725572645664215, 0.1976349651813507, 0.03636747598648071, -0.01976868510246277, -0.07935678958892822, -0.012641459703445435, 0.04550522565841675, -0.1909627616405487, -0.05974891781806946, -0.20795023441314697, 0.1534387171268463, -0.15920907258987427, 0.22838595509529114, -0.06444519758224487, -0.14321881532669067, 0.12011328339576721, 0.037269771099090576, 0.17311400175094604, 0.10436743497848511, -0.24083486199378967, 0.15812259912490845, -0.047078460454940796, -0.1104927659034729, 0.15876346826553345, 0.1823325753211975, -0.21973267197608948, -0.022605836391448975, 0.20530164241790771, 0.09682169556617737, 0.210617333650589, -0.08567467331886292, -0.1379106044769287, 0.2149774134159088, 0.10420572757720947, 0.23999562859535217, -0.10442414879798889, -0.16051670908927917, -0.02930322289466858, -0.23539498448371887, 0.09799379110336304, 0.18439710140228271, 0.06001421809196472, -0.024701714515686035, 0.12395158410072327, -0.15868782997131348, 0.24456077814102173, -0.24858590960502625, -0.23948630690574646, -0.05907541513442993, 0.20421111583709717, 0.025031447410583496, 0.09601143002510071, -0.18325170874595642, 0.09117144346237183, -0.02793586254119873, 0.10020589828491211, 0.176560640335083, 0.10867005586624146, -0.021266043186187744, -0.015399783849716187, -0.15679505467414856, -0.0904255211353302, 0.16245952248573303, -0.10024914145469666, 0.15525993704795837, -0.09913298487663269, -0.05822470784187317, 0.005320549011230469, -0.2294163703918457, -0.0024962425231933594, -0.025198936462402344, -0.022459089756011963, -0.04997605085372925, 0.19709432125091553, 0.18449679017066956, -0.16943931579589844, 0.11613169312477112, -0.19609564542770386, -0.2128303349018097, 0.07642048597335815, 0.003674119710922241, -0.11662659049034119, -0.2411259412765503, -0.09678402543067932, 0.08349987864494324, -0.23140037059783936, -0.2428663671016693, 0.03171813488006592, -0.18010103702545166, -0.2190200686454773, -0.09632155299186707, -0.04025021195411682, -0.22717630863189697, -0.16693192720413208, 0.01639196276664734, -0.23574292659759521, -0.035138607025146484, -0.16142567992210388, -0.173309326171875, 0.09825775027275085, -0.19242241978645325, -0.18945854902267456, 0.1425703763961792, 0.04674157500267029, 0.22767820954322815, -0.06682386994361877, -0.12075376510620117, -0.023136615753173828, 0.0012648403644561768, 0.19066107273101807, -0.24901998043060303, -0.017800182104110718, 0.11058804392814636, -0.13767075538635254, -0.1270352005958557, 0.12081694602966309, -0.2395462989807129, 0.059238940477371216, -0.1935466229915619, 0.12426546216011047, -0.213760107755661, 0.15370118618011475, -0.23665815591812134, -0.21014168858528137, 0.00368422269821167, 0.19699710607528687, -0.21409890055656433, -0.11151492595672607, 0.21957063674926758, -0.041924357414245605, 0.10357114672660828, -0.2404995560646057, -0.07862022519111633, -0.12695804238319397, 0.2107653021812439, 0.10375997424125671, -0.18241891264915466, 0.04030674695968628, -0.002873361110687256, -0.10271745920181274, -0.14276915788650513, -0.08295965194702148, 0.1970566213130951, -0.17921307682991028, -0.1780858337879181, -0.0771297812461853, 0.004349082708358765, 0.0680529773235321, 0.00750201940536499, -0.06018140912055969, -0.15158754587173462, -0.04485815763473511, -0.10063832998275757, 0.20198220014572144, -0.24335238337516785, -0.09206701815128326, -0.1174316257238388, -0.02637866884469986, 0.11247843503952026, 0.12651753425598145, -0.12565383315086365, -0.006253689527511597, 0.08472126722335815, 0.06362363696098328, 0.11822745203971863, -0.004003658890724182, -0.09697936475276947, 0.0954837054014206, -0.04949545860290527, 0.07473598420619965, -0.035570040345191956, 0.0613570511341095, 0.12982094287872314, 0.13421306014060974, -0.13135656714439392, -0.09547645598649979, -0.05967879295349121, -0.09204421937465668, 0.1384918987751007, -0.012747719883918762, -0.09574496746063232, -0.06422869116067886, -0.07972695678472519, 0.05888819694519043, -0.1258985996246338, -0.1345807909965515, -0.1422823667526245, 0.0621408075094223, 0.07136838138103485, -0.08964504301548004, 0.03579261898994446, 0.1065477728843689, 0.020972445607185364, -0.030539169907569885, 0.010664001107215881, -0.015476986765861511, 0.07267384231090546, -0.09800684452056885, 0.07319393754005432, 0.08135205507278442, -0.08745047450065613, 0.11786079406738281, 0.14176616072654724, -0.05690201371908188, -0.04042813926935196, 0.07193142175674438, -0.11307699978351593, 0.05707944929599762, 0.03367464244365692, 0.09098026156425476, -0.12537258863449097, -0.11991345882415771, 0.06482620537281036, 0.051991939544677734, -0.13434453308582306, -0.08049121499061584, -0.1320657730102539, -0.10340674221515656, -0.06512505561113358, 0.11944487690925598, -0.028730519115924835, 0.08290044963359833, 0.13707461953163147, 0.06577928364276886, -0.12921248376369476, 0.07263393700122833, 0.05505533516407013, 0.11187106370925903, -0.1423795074224472, 0.08876991271972656, 0.11814627051353455, -0.13428658246994019, 0.015101507306098938, 0.12321710586547852, -0.10497789084911346, 0.04735994338989258, 0.06377950310707092, 0.0378294438123703, 0.1435113549232483, 0.11818066239356995, 0.12383508682250977, -0.017991214990615845, 0.12105771899223328, -0.13451001048088074, -0.07788878679275513, -0.030871085822582245, -0.04287645220756531, 0.13332384824752808, 0.06807900965213776, 0.09292639791965485, 0.09817977249622345, -0.10782067477703094, -0.01671731472015381, 0.021076828241348267, 0.03754112124443054, 0.07422308623790741, -0.05743289738893509, -0.04352274537086487, 0.12077319622039795, -0.0387379452586174, -0.1002628356218338, 0.09786660969257355, 0.09773898124694824, -0.04525948315858841, -0.02885597199201584, -0.10650379955768585, -0.12053539603948593, 0.05427807569503784, -0.061659932136535645, 0.11490648984909058, -0.115572988986969, -0.019951067864894867, 0.003116503357887268, 0.07418186962604523, 0.11681681871414185, 0.09774604439735413, 0.06353682279586792, -0.06625004857778549, -0.10307833552360535, -0.12912623584270477, 0.007159814238548279, 0.13999015092849731, -0.027415834367275238, -0.006076395511627197, -0.10488924384117126, 0.04431302845478058, 0.09150761365890503, -0.1423047035932541, -0.1016312837600708, 0.10691195726394653, 0.03417402505874634, -0.008998885750770569, 0.025801539421081543, -0.02194535732269287, -0.10088689625263214, -0.13487333059310913, 0.094931960105896, -0.01716703176498413, -0.053605131804943085, -0.03725571185350418, -0.07872503250837326, -0.04275038093328476, -0.12390144169330597, 0.1080140769481659, 0.05893915891647339, -0.07279253005981445, -0.049264319241046906, 0.06475524604320526, -0.053448982536792755, 0.038060903549194336, 0.0397421270608902, -0.09085951745510101, 0.03615677356719971, 0.008831173181533813, 0.12606209516525269, -0.05222421884536743, -0.03710464388132095, 0.12436133623123169, -0.1178663969039917, 0.010428160429000854, 0.1390695869922638, -0.06471633911132812, 0.13837385177612305, 0.12807658314704895, 0.13428297638893127, -0.013773143291473389, 0.13057255744934082, -0.0628906711935997, -0.04940749704837799, 0.054593175649642944, 0.030490905046463013, 0.07956977188587189, 0.13716676831245422, -0.09035374224185944, 0.07660380005836487, 0.04829023778438568, 0.0761478990316391, 0.06844088435173035, -0.05399234592914581, -0.11407806724309921, 0.11552557349205017, -0.08230641484260559, 0.09227892756462097, -0.13750223815441132, -0.02497074007987976, 0.0015298128128051758, 0.024973809719085693, 0.01166708767414093, 0.045481666922569275, -0.016071200370788574, 0.035348907113075256, 0.14283418655395508, -0.09339392185211182, -0.007880359888076782, -0.05509697645902634, 0.1266460418701172, 0.12355870008468628, -0.003935977816581726, -0.0500321090221405, -0.08918129652738571, 0.1032792329788208, -0.009939610958099365, 0.13593849539756775, 0.08231021463871002, 0.12633934617042542, 0.1141599714756012, -0.09379664808511734, 0.042247921228408813, -0.05985085666179657, 0.0724218338727951, -0.012977361679077148, 0.012495294213294983, -0.09982512891292572, -0.12899817526340485, 0.05435362458229065, 0.03354194760322571, 0.012537568807601929, 0.09803329408168793, -0.060271672904491425, 0.051237061619758606, -0.07949558645486832, 0.029906734824180603, -0.03295205533504486, 0.10108344256877899, 0.1262206733226776, 0.1253606081008911, 0.006492912769317627, 0.08511486649513245, -0.14421319961547852, -0.08466757833957672, 0.025796473026275635, 0.0008049607276916504, -0.11331551522016525, -0.06388548016548157, -0.06741345673799515, -0.14300419390201569, 0.013765588402748108, 0.09839405119419098, 0.058581337332725525, -0.0685795322060585, -0.13254016637802124, -0.11644822359085083, 0.002677351236343384, 0.09929172694683075, -0.058452755212783813, -0.07854056358337402, -0.0769978016614914, -0.012495115399360657, -0.13707084953784943, -0.12736989557743073, 0.142084538936615, -0.06883690506219864, -0.026033252477645874, -0.03861790895462036, -0.12680144608020782, -0.02544572204351425, 0.044184133410453796, -0.05860936641693115, -0.006151646375656128, -0.0006904453039169312, -0.14368875324726105, 0.10489247739315033, 0.11659196019172668, 0.09841014444828033, -0.04740022122859955, 0.07542550563812256, -0.1352331042289734, -0.03570719063282013, -0.02935599535703659, -0.05097275972366333, 0.06062178313732147, -0.0657685399055481, -0.016729280352592468, -0.04167795926332474, -0.13554495573043823, -0.02383599430322647, -0.12232265621423721, 0.08416382968425751, 0.07714307308197021, 0.13521426916122437, -0.04846895486116409, 0.007339879870414734, 0.02827438712120056, 0.14408043026924133, 0.13230174779891968, -0.07470039278268814, -0.12281721830368042, -0.13008975982666016, -0.0695071592926979, 0.12135708332061768, 0.0484757125377655, 0.1392645537853241, 0.10698601603507996, 0.0020925551652908325, -0.08945687115192413, 0.14094573259353638, 0.1157834529876709, 0.06248994171619415, -0.07884633541107178, 0.11370614171028137, 0.013137012720108032, 0.09544089436531067, 0.06024169921875, 0.07664445042610168, -0.12665274739265442, -0.08003246039152145, 0.08656956255435944, -0.03007069230079651, -0.12557075917720795, 0.131260484457016, -0.0031213760375976562, 0.11643478274345398, -0.11281666159629822, 0.04969453811645508, -0.054367437958717346, -0.060739465057849884, -0.03010445088148117, -0.05342596024274826, 0.07909123599529266, -0.027424007654190063, 0.10943928360939026, 0.03293539583683014, -0.022302359342575073, -0.08336929231882095, -0.13216601312160492, -0.04210648685693741, -0.133661150932312, -0.026741519570350647, 0.0023590922355651855, -0.00930166244506836, -0.0709010511636734, 0.10017946362495422, 0.08128800988197327, -0.03556147217750549, -0.05702861398458481, 0.09074360132217407, 0.1255771815776825, -0.13216103613376617, -0.031185463070869446, -0.013394832611083984, -0.052258990705013275, 0.12322229146957397, -0.02132030576467514, 0.12237638235092163, 0.000713542103767395, -0.0156564861536026, -0.08419234305620193, -0.047993168234825134, 0.04650983214378357, 0.0638459175825119, -0.00513555109500885, 0.13753101229667664, -0.09990076720714569, 0.0553409606218338, 0.13000133633613586, -0.025097757577896118, 0.11459091305732727, 0.002379313111305237, -0.10808644443750381, -0.07918595522642136, 0.05372467637062073, -0.06246192753314972, 0.034714773297309875, 0.14206501841545105, 0.04902864992618561, -0.013508528470993042, 0.03607788681983948, -0.0831591859459877, -0.12128008902072906, -0.1084984838962555, -0.12111401557922363, 0.029620885848999023, 0.028114527463912964, -0.06133884936571121, -0.14118388295173645, 0.07818834483623505, -0.08189847320318222, -0.02409682422876358, -0.12102443724870682, -0.08142922073602676, 0.06021185219287872, -0.134483203291893, -0.08230700343847275, 0.10821422934532166, -0.07402333617210388, -0.06006693094968796, -0.04052620381116867, 0.06169840693473816, -0.09468105435371399, 0.01447206735610962, 0.0589478462934494, -0.010477930307388306, 0.02609892189502716, -0.11010755598545074, 0.06525492668151855, 0.0539432018995285, -0.018104568123817444, -0.1193484514951706, 0.057731494307518005, 0.09418624639511108, -0.0252457857131958, 0.06803172826766968, 0.05350002646446228, -0.05773033946752548, -0.010019958019256592, 0.1436791718006134, 0.0006814301013946533, -0.1149090826511383, -0.010526299476623535, 0.0718068778514862, -0.04711519181728363, -0.0755872055888176, 0.11890214681625366, 0.07635626196861267, -0.024521932005882263, 0.0073740482330322266, -0.015265539288520813, 0.03351020812988281, 0.005129680037498474, -0.08734370768070221, 0.026742026209831238, 0.0037751197814941406, 0.009331926703453064, -0.05500529706478119, 0.03698255121707916, -0.11671800911426544, 0.043145835399627686, 0.0782155692577362, -0.015884801745414734, -0.11212144792079926, -0.0005246847867965698, 0.00020489096641540527, -0.1247372105717659, -0.10208926349878311, 0.13350340723991394, 0.10793831944465637, 0.07999230921268463, 0.0999910980463028, 0.05556461215019226, 0.08123154938220978, 0.09559789299964905, -0.03371836245059967, -0.018348485231399536, 0.10291938483715057, -5.1975250244140625e-05, -0.09391850233078003, -0.11191917955875397, 0.08072444796562195, 0.11955761909484863, 0.11209431290626526, 0.024020522832870483, 0.09963341057300568, -0.1325211226940155, -0.1039898619055748, -0.1388860046863556, 0.11629077792167664, -0.0013060569763183594, -0.06646235287189484, 0.04883997142314911, -0.05403029918670654, -0.09257005900144577, 0.05567075312137604, 0.02642802894115448, -0.1033627986907959, -0.09506966173648834, 0.06767551600933075, 0.10975092649459839, 0.011750102043151855, -0.07249859720468521, 0.06969691812992096, 0.025173261761665344, -0.1263645589351654, -0.09353722631931305, 0.031592145562171936, 0.08931238949298859, -0.046370431780815125, 0.06979204714298248, -0.0893900990486145, 0.13812145590782166, 0.10284687578678131, 0.02703547477722168, 0.06421470642089844, 0.05025210976600647, -0.08517318964004517, -0.0012586116790771484, 0.038489118218421936, -0.03257904201745987, 0.13841184973716736, -0.05566182732582092, -0.12890349328517914, -0.0687156692147255, -0.13395750522613525, 0.11894109845161438, -0.06479447335004807, -0.10155204683542252, -0.015602707862854004, -0.09725587069988251, -0.07539810985326767, 0.07358475029468536, -0.10836800932884216, 0.0680684894323349, 0.10525651276111603, -0.00032375752925872803, 0.06409116089344025, -0.08085192739963531, 0.11255684494972229, 0.14021551609039307, 0.03429989516735077, 0.13153132796287537, -0.14335113763809204, -0.01584838330745697, 0.028678864240646362, -0.1254563182592392, 0.07023924589157104, -0.055009134113788605, -0.052204377949237823, -0.11451949179172516, 0.05900776386260986, -0.10502391308546066, -0.030629247426986694, 0.06411927938461304, 0.10873615741729736, 0.032638370990753174, -0.05384407192468643, -0.06278184056282043, 0.08101418614387512, 0.026780053973197937, 0.12150394916534424, 0.054355502128601074, 0.11627575755119324, -0.11630845814943314, 0.11603701114654541, -0.06631650030612946, -0.038636937737464905, 0.0008639097213745117, -0.0270678848028183, 0.028550803661346436, 0.1286187469959259, -0.08623956143856049, 0.04459844529628754, -0.11600472033023834, 0.022663220763206482, 0.11890694499015808, 0.09732440114021301, 0.12360528111457825, 0.07813341915607452, -0.011941760778427124, 0.037686049938201904, -0.060312122106552124, 0.12251701951026917, 0.07227051258087158, -0.10564355552196503, 0.12480241060256958, -0.0021418482065200806, -0.00641612708568573, -0.0395030602812767, -0.0380820706486702, 0.007224142551422119, -0.07046409696340561, -0.1342637985944748, -0.07434914261102676, -0.02872277796268463, 0.1089957058429718, 0.10618269443511963, -0.08648018538951874, -0.005542173981666565, -0.0416581928730011, -0.07721605151891708, -0.025381386280059814, -0.05008162558078766, 0.08067755401134491, -0.07158248871564865, 0.022206738591194153, -0.08145175874233246, -0.04504848271608353, 0.11362597346305847, -0.07086052745580673, -0.008679106831550598, 0.13784942030906677, 0.04940202832221985, -0.07346765697002411, -0.0866607129573822, -0.050615452229976654, -0.0451991930603981, 0.06284268200397491, -0.032089829444885254, 0.12173306941986084, -0.07919536530971527, -0.04513489454984665, 0.05255046486854553, 0.11527585983276367, 0.13807231187820435, 0.023102372884750366, 0.006083980202674866, -0.06466834992170334, 0.08155342936515808, -0.0836651399731636, -0.03793851286172867, -0.12063686549663544, -0.13875792920589447, 0.08067774772644043, 0.009805887937545776, 0.11506226658821106, 0.1148538589477539, 0.07574160397052765, 0.05776306986808777, -0.03745809942483902, 0.07665936648845673, 0.06940728425979614, 0.04996649920940399, -0.0041665732860565186, 0.02155965566635132, 0.0006404072046279907, -0.10474945604801178, 0.03350631892681122, -0.10610908269882202, 0.07003277540206909, -0.08599770069122314, -0.04714793711900711, -0.06845255196094513, 0.11392724514007568, -0.10164520144462585, 0.07370074093341827, 0.07238966226577759, 0.10205739736557007, 0.03616437315940857, 0.0786854475736618, 0.11409884691238403, 0.028431057929992676, 0.049077317118644714, -0.11286245286464691, -0.03871564567089081, 0.013087362051010132, 0.017487704753875732, -0.0509946271777153, -0.14308728277683258, -0.03753647208213806, 0.055258333683013916, 0.12428483366966248, -0.130341038107872, 0.06891173124313354, -0.13695815205574036, -0.1380302757024765, -0.09039060771465302, -0.01906457543373108, 0.04031260311603546, -0.10977032780647278, 0.11120343208312988, 0.13052505254745483, 0.008880555629730225, 0.11748844385147095, -0.06534383445978165, -0.057099178433418274, -0.018626049160957336, 0.015771090984344482, -0.1006879061460495, -0.11557649821043015, 0.05701814591884613, 0.04161638021469116, 0.1412009596824646, -0.058848291635513306, 0.050971418619155884, -0.05824575573205948, 0.07125216722488403, -0.007995590567588806, 0.10699859261512756, 0.08018943667411804, 0.12013903260231018, 0.0741744339466095, 0.005422741174697876, 0.12438613176345825, -0.08478125929832458, 0.1361371874809265, 0.14104479551315308, 0.13788104057312012, -0.06742309033870697, -0.07647844403982162, 0.00913199782371521, 0.04494640231132507, 0.07240363955497742, 0.0587024986743927, 0.12290191650390625, -0.0361623540520668, -0.04735332727432251, 0.0483819842338562, 0.040222153067588806, -0.08419609069824219, 0.013961002230644226, -0.10958826541900635, -0.042344190180301666, -0.0566486120223999, 0.1265239119529724, -0.12992887198925018, -0.08522050827741623, -0.14125306904315948, 0.03640270233154297, -0.11109502613544464, 0.046699076890945435, -0.100258469581604, -0.09245988726615906, -0.07373853772878647, 0.021660596132278442, 0.13262900710105896, 0.13520276546478271, -0.010904669761657715, -0.14137819409370422, -0.04768553376197815, -0.05500863492488861, -0.03069998323917389, 0.055149734020233154, 0.0726357102394104, 0.06399562954902649, 0.04123266041278839, -0.05843187868595123, -0.001531153917312622, 0.018369480967521667, -0.07372623682022095, -0.012911900877952576, -0.018017500638961792, -0.13637197017669678, 0.09784969687461853, -0.014592885971069336, -0.1247740164399147, 0.1141960620880127, -0.07766429334878922, 0.05110184848308563, 0.14314138889312744, 0.006681755185127258, 0.0415264368057251, 0.05734945833683014, 0.10908904671669006, -0.04428604990243912, -0.08122149109840393, -0.011295408010482788, 0.11287933588027954, 0.012410417199134827, 0.10028737783432007, -0.0010731220245361328, 0.044285669922828674, 0.005018949508666992, 0.003918185830116272, -0.13735444843769073, -0.1261848360300064, 0.011998802423477173, 0.0714375227689743, 0.09695912897586823, 0.006262689828872681, 0.06084141135215759, 0.060367316007614136, -0.12459973245859146, -0.12686310708522797, -0.11191155761480331, 0.0024815499782562256, -0.09126701951026917, -0.04618990421295166, -0.021594934165477753, 0.05631498992443085, 0.033465951681137085, 0.13389846682548523, 0.1301911473274231, -0.09208112210035324, -0.00045470893383026123, 0.02383512258529663, 0.12600648403167725, -0.04473324865102768, -0.056724973022937775, -0.09143152832984924, 0.10635673999786377, -0.04089193791151047, -0.054058052599430084, 0.09762553870677948, 0.1328141689300537, -0.006082579493522644, -0.10174442827701569, 0.11760410666465759, -0.049364134669303894, -0.06651433557271957, -0.10147275775671005, -0.06941699981689453, -0.2960085868835449, -0.21816647052764893, -0.3443097770214081, -0.07617977261543274, 0.15197011828422546, -0.2869224548339844, -0.0005278289318084717, -0.1393788456916809, 0.18282076716423035, 0.32736310362815857, -0.050104111433029175, -0.1902294009923935, -0.29041436314582825, -0.2220623642206192, 0.10912707448005676, 0.08672142028808594, 0.2035450041294098, -0.0561615526676178, 0.19421079754829407, -0.3367372155189514, 0.10160407423973083, 0.36692550778388977, -0.37407082319259644, -0.19621174037456512, 0.24196121096611023, -0.059094250202178955, -0.2014714628458023, 0.23058274388313293, 0.02533629536628723, 0.01480373740196228, -0.11480072140693665, 0.2847733795642853, 0.2096557915210724, 0.06770917773246765, 0.05768170952796936, 0.1954428255558014, 0.23547562956809998, -0.15504156053066254, -0.04141032695770264, 0.1659349501132965, -0.18315349519252777, 0.3534156382083893, -0.2589053511619568, 0.17441055178642273, -0.27149659395217896, 0.12135171890258789, 0.26399192214012146, 0.045563459396362305, -0.037882596254348755, 0.24035272002220154, -0.2713940143585205, -0.25499966740608215, -0.3221377730369568, -0.23265568912029266, 0.009809792041778564, -0.17138639092445374, 0.08420482277870178, 0.012754380702972412, 0.31456366181373596, -0.16388848423957825, -0.10339844226837158, 0.24998345971107483, -0.09556999802589417, 0.3618611991405487, -0.15011996030807495, -0.004139453172683716, -0.08955040574073792, 0.1763381063938141, 0.14482370018959045, -0.2012767642736435, 0.24905654788017273, -0.02401670813560486, -0.09557873010635376, -0.007624149322509766, 0.26304277777671814, 0.37076088786125183, 0.1839139759540558, 0.06613719463348389, 0.24667254090309143, -0.15805257856845856, -0.19752538204193115, -0.10915076732635498, -0.24462765455245972, 0.16251292824745178, 0.03590276837348938, -0.1293146312236786, -0.03837183117866516, -0.007494211196899414, 0.3240782916545868, 0.33739617466926575, -0.2909751832485199, 0.13852277398109436, 0.145950049161911, 0.14452138543128967, -0.051528483629226685, 0.09452441334724426, 0.09510967135429382, 0.3678723871707916, -0.3622516393661499, -0.14342834055423737, -0.2542952299118042, -0.18333931267261505, 0.07420885562896729, 0.23051437735557556, -0.2858220338821411, 0.24583259224891663, 0.3157145082950592, -0.1863013505935669, 0.06596940755844116, -0.19403846561908722, 0.08095493912696838, -0.17523294687271118, -0.09738871455192566, -0.16735413670539856, -0.2084750235080719, 0.1995035707950592, -0.0315709114074707, -0.006935536861419678, -0.12441739439964294, 0.1742507517337799, -0.14309334754943848, -0.10111552476882935, -0.19515365362167358, -0.2102201282978058, 0.22194835543632507, -0.19304892420768738, -0.03451460599899292, -0.07236504554748535, 0.09157192707061768, 0.06686726212501526, -0.1916477382183075, 0.22451859712600708, -0.2490330934524536, 0.02472648024559021, -0.020885974168777466, -0.05793514847755432, 0.17036670446395874, 0.2110791802406311, 0.03256586194038391, -0.08829975128173828, 0.18586239218711853, 0.1570674180984497, 0.044902026653289795, -0.06837785243988037, 0.010539978742599487, 0.22282350063323975, 0.027111142873764038, -0.049266278743743896, -0.21166381239891052, -0.13397064805030823, 0.1805587112903595, -0.008803397417068481, -0.01664826273918152, 0.0973401665687561, -0.1644817590713501, -0.016888171434402466, -0.07031360268592834, 0.13080522418022156, 0.20345598459243774, 0.15697690844535828, 0.18638890981674194, -0.2234254777431488, -0.08875417709350586, 0.0296039879322052, -0.21233868598937988, 0.06781816482543945, -0.1638704240322113, 0.10712811350822449, 0.2023380696773529, -0.21386227011680603, 0.20948559045791626, 0.11665034294128418, -0.16498041152954102, 0.2392944097518921, -0.21652209758758545, -0.1683049201965332, -0.12436142563819885, -0.012659609317779541, 0.04489254951477051, -0.0733676552772522, -0.23696181178092957, -0.028857886791229248, 0.18967899680137634, 0.1924843192100525, 0.1251479983329773, 0.036297231912612915, 0.06211864948272705, -0.19272738695144653, 0.10123488306999207, -0.24880895018577576, -0.10324245691299438, -0.06569927930831909, 0.18358305096626282, -0.007287651300430298, -0.1138773262500763, 0.043677181005477905, -0.20744258165359497, -0.06618934869766235, 0.06923803687095642, -0.01655709743499756, -0.026254922151565552, 0.1527937948703766, -0.1899070143699646, -0.12623140215873718, 0.24199286103248596, 0.04974722862243652, -0.040477752685546875, 0.12949654459953308, 0.15039610862731934, -0.041775286197662354, -0.10413533449172974, -0.040864408016204834, 0.09077709913253784, -0.03191572427749634, 0.14550015330314636, -0.20387130975723267, -0.12265792489051819, 0.1905849277973175, 0.03279724717140198, 0.05034291744232178, 0.08222383260726929, -0.059073299169540405, -0.09997692704200745, 0.07172104716300964, -0.06625774502754211, -0.10327446460723877, 0.033029407262802124, 0.0604703426361084, -0.02257290482521057, -0.16907382011413574, -0.03780055046081543, -0.14168187975883484, 0.13157919049263, -0.1656499207019806, 0.199334055185318, 0.0995720624923706, -0.21407926082611084, 0.18552523851394653, -0.247234046459198, -0.014535307884216309, -0.15608927607536316, -0.21506881713867188, 0.024769991636276245, -0.12121468782424927, 0.18070894479751587, -0.19652745127677917, 0.2075057029724121, 0.15082424879074097, 0.21896496415138245, -0.0732080340385437, -0.15323874354362488, -0.16609126329421997, 0.20789262652397156, -0.12434393167495728, -0.030781865119934082, -0.03853413462638855, 0.043009430170059204, -0.20514482259750366, 0.2015848159790039, -0.18498462438583374, 0.2458898425102234, -0.09782105684280396, -0.11160555481910706, -0.034363120794296265, 0.07398903369903564, -0.04632118344306946, -0.24951210618019104, 0.1758459210395813, 0.2476220726966858, 0.12613219022750854, 0.2446315586566925, 0.06813758611679077, -0.019589930772781372, -0.1991238296031952, -0.2185012400150299, -0.1721242368221283, -0.06343075633049011, 0.14557674527168274, -0.10314598679542542, -0.009709805250167847, -0.0035282671451568604, -0.1634197235107422, -0.006767541170120239, 0.24138841032981873, 0.1998136341571808, 0.19040480256080627, -0.024656593799591064, 0.004433751106262207, 0.13667166233062744, -0.08315664529800415, -0.10131779313087463, 0.2138971984386444, 0.014272838830947876, -0.1688016653060913, 0.21065130829811096, 0.04149430990219116, 0.133764386177063, -0.21712753176689148, 0.04639291763305664, 0.15291261672973633, -0.036066263914108276, -0.14210113883018494, 0.20001506805419922, 0.11628025770187378, 0.07120141386985779, 0.05912423133850098, 0.005517899990081787, 0.14336669445037842, -0.05465194582939148, -0.14716118574142456, 0.09546202421188354, 0.06669890880584717, 0.09518715739250183, -0.02776777744293213, -0.03317609429359436, -0.019869744777679443, 0.06592068076133728, -0.19183966517448425, -0.23301485180854797, 0.093548983335495, -0.1368759274482727, -0.021030694246292114, 0.06930714845657349, 0.03506484627723694, 0.1611655056476593, 0.03277087211608887, 0.06189382076263428, -0.022377729415893555, 0.03690245747566223, 0.09166893362998962, 0.17055362462997437, -0.23687800765037537, -0.10414078831672668, -0.22433459758758545, -0.0996735692024231, 0.15239489078521729, -0.2368754744529724, -0.22400453686714172, 0.1447557508945465, -0.14763426780700684, 0.1827165186405182, 0.07789728045463562, 0.06275412440299988, 0.19860312342643738, -0.23157379031181335, 0.18307378888130188, 0.08107441663742065, -0.16752740740776062, 0.06082800030708313, -0.06967487931251526, -0.10034757852554321, -0.027075856924057007, -0.11786624789237976, 0.21860918402671814, 0.2151755392551422, -0.026669412851333618, -0.22169417142868042, -0.015293866395950317, 0.016517609357833862, 0.16710525751113892, 0.008043527603149414, 0.07276150584220886, 0.06633380055427551, -0.14185038208961487, -0.1550716757774353, -0.22344252467155457, -0.001963198184967041, 0.07743236422538757, -0.017776191234588623, 0.24266654253005981, -0.047690629959106445, -0.1631317436695099, 0.04166695475578308, -0.07040277123451233, -0.034272342920303345, 0.24223747849464417, -0.007173120975494385, 0.21838542819023132, 0.03338637948036194, -0.09300544857978821, 0.18328982591629028, -0.14240720868110657, 0.008271723985671997, 0.05619350075721741, 0.06478363275527954, -0.13317443430423737, 0.007080584764480591, -0.03737184405326843, 0.0935836136341095, 0.048561498522758484, 0.05785006284713745, 0.08678437769412994, -0.03231444209814072, -0.009247630834579468, 0.11579534411430359, -0.11633451282978058, -0.09976896643638611, 0.010559022426605225, -0.05717609077692032, 0.008266359567642212, 0.12750202417373657, -0.016732141375541687, -0.12306719273328781, -0.06561262160539627, 0.132554829120636, -0.031709425151348114, -0.06328883022069931, 0.06497016549110413, 0.017868444323539734, -0.12725947797298431, 0.12020239233970642, 0.08128005266189575, 0.1254560649394989, 0.06316201388835907, -0.048663973808288574, -0.04711860418319702, 0.0699491798877716, -0.027980394661426544, 0.02829788625240326, -0.13986138999462128, -0.07134927809238434, 0.05361384153366089, -0.007115676999092102, -0.06939037889242172, -0.1259009689092636, 0.09173516929149628, -0.029020346701145172, -0.1418164223432541, 0.139254629611969, 0.07023850083351135, -0.08633393049240112, -0.1053420752286911, 0.13947522640228271, 0.0006026476621627808, -0.08680784702301025, 0.08305858075618744, -0.030065372586250305, 0.009887561202049255, -0.07519029080867767, -0.1222531646490097, -0.09585785865783691, -0.01584869623184204, -0.10449284315109253, 0.1422603726387024, 0.0015621781349182129, -0.05525701493024826, 0.057045117020606995, -0.12796518206596375, -0.07382752746343613, 0.05421334505081177, -0.12263824045658112, 0.07193826138973236, 0.012132316827774048, -0.1203497052192688, -0.14324524998664856, 0.04561798274517059, 0.06822378933429718, -0.028853997588157654, -0.127631276845932, -0.08318843692541122, 0.015340685844421387, 0.005251139402389526, 0.036947086453437805, 0.025521785020828247, -0.00756564736366272, 0.07617075741291046, 0.14000940322875977, 0.12020629644393921, 0.1311560571193695, -0.04871440678834915, -0.04926454275846481, -0.015963926911354065, 0.04266023635864258, 0.05842477083206177, -0.012865692377090454, -0.09323142468929291, -0.1089026927947998, 0.1389564573764801, -0.038805991411209106, -0.0195099338889122, -0.08845874667167664, -0.07155676931142807, 0.031702250242233276, 0.06079302728176117, -0.057060033082962036, -0.053126655519008636, 0.11433833837509155, -0.07433625310659409, -0.1076880693435669, -0.02251891791820526, 0.13734355568885803, 0.031406253576278687, 0.01994358003139496, -0.01797182857990265, 0.09019492566585541, -0.07154104113578796, 0.09786245226860046, 0.03409889340400696, 0.01604790985584259, 0.01987043023109436, -0.0890166163444519, 0.10720047354698181, 0.07580722868442535, -0.11288893222808838, -0.13439005613327026, -0.03715669363737106, 0.09589096903800964, -0.07106194645166397, 0.13377737998962402, -0.07256942987442017, -0.13038046658039093, 0.0634922981262207, -0.08722954243421555, -0.022753126919269562, -0.04501945525407791, -0.011468946933746338, -0.12577186524868011, -0.13238659501075745, 0.06204737722873688, -0.01635567843914032, -0.0870688185095787, -0.0036769509315490723, -0.13174158334732056, 0.03831329941749573, 0.0685463398694992, 0.1399809718132019, -0.11758792400360107, -0.017501965165138245, 0.07833126187324524, 0.13227972388267517, -0.1026921421289444, 0.061338022351264954, 0.05959179997444153, 0.08701691031455994, -0.09950865060091019, 0.103001669049263, -0.06286820024251938, -0.08884680271148682, 0.02865925431251526, 0.12227416038513184, -0.09558344632387161, 0.07706297934055328, -0.016530349850654602, 0.04607793688774109, 0.11259347200393677, 0.03919057548046112, -0.11982275545597076, -0.04345656931400299, 0.028647705912590027, -0.12176178395748138, 0.023996084928512573, -0.07750479131937027, -0.028691016137599945, 0.05163545906543732, -0.11616571247577667, -0.09266678988933563, 0.06583298742771149, -0.14275571703910828, 0.09933142364025116, -0.11129569262266159, -0.0023241043090820312, 0.029630154371261597, 0.05695450305938721, -0.08958566188812256, 0.019423916935920715, 0.06214992702007294, 0.12379971146583557, -0.10862115025520325, -0.07176059484481812, 0.0420478880405426, -0.004633620381355286, -0.0974029004573822, -0.12148181349039078, -0.12816154956817627, -0.10099994391202927, -0.0614544078707695, -0.10022792965173721, -0.12661971151828766, 0.011266842484474182, 0.08464767038822174, -0.06805327534675598, 0.014433428645133972, -0.0017793476581573486, 0.06746819615364075, -0.10009908676147461, 0.006852641701698303, 0.134723961353302, 0.1030452698469162, -0.14305537939071655, -0.021728508174419403, 0.0013454705476760864, -0.04765971004962921, -0.09482775628566742, -0.10043387115001678, 0.09590759873390198, -0.04672877490520477, -0.0092887282371521, 0.04235309362411499, -0.08859297633171082, 0.012865066528320312, 0.08585378527641296, -0.0843924731016159, 0.04199318587779999, -0.0049300044775009155, 0.07936197519302368, 0.09590946137905121, 0.03829357028007507, 0.004361271858215332, -0.12425020337104797, 0.05746862292289734, 0.08799770474433899, -0.05242706090211868, -0.14331890642642975, 0.11696609854698181, -0.0338800847530365, 0.028877943754196167, -0.04057449847459793, 0.0920482724905014, 0.14076945185661316, 0.09047636389732361, -0.0459345281124115, 0.10115031898021698, 0.07042689621448517, 0.014081895351409912, -0.11626112461090088, -0.0619775652885437, -0.14280566573143005, 0.09653781354427338, 0.14267635345458984, 0.08407863974571228, 0.04611864686012268, 0.03411293029785156, 0.13894551992416382, -0.07317611575126648, -0.0484577938914299, -0.12959758937358856, -0.014292821288108826, 0.009900912642478943, 0.03951096534729004, -0.10041336715221405, -0.016702651977539062, -0.11893428862094879, -0.11740990728139877, 0.018813490867614746, -0.14089544117450714, 0.03843393921852112, -0.13296356797218323, -0.10043380409479141, -0.029949471354484558, -0.1377386450767517, 0.11657169461250305, 0.11826390027999878, -0.07539169490337372, 0.030235841870307922, 0.07383948564529419, 0.04586659371852875, -0.019334852695465088, -0.13614080846309662, 0.10495345294475555, -0.12659801542758942, -0.026731282472610474, 0.008953481912612915, -0.04753642529249191, -0.05279214680194855, -0.12474669516086578, 0.007952898740768433, -0.016388818621635437, 0.12583383917808533, -0.04751897603273392, 0.11156067252159119, 0.006832942366600037, -0.06484829634428024, -0.034326158463954926, -0.016379594802856445, 0.001495078206062317, -0.023779988288879395, 0.042835503816604614, 0.11886429786682129, 0.02268749475479126, 0.05228090286254883, 0.08913138508796692, 0.031112223863601685, 0.06653539836406708, 0.07571236789226532, 0.13510185480117798, -0.13173022866249084, 0.04939106106758118, -0.006540149450302124, -0.025921635329723358, -0.05564820021390915, 0.08677582442760468, 0.1320381760597229, -0.11779242753982544, 0.07798269391059875, 0.09952792525291443, 0.025226444005966187, 0.0017002671957015991, 0.11107149720191956, 0.004279404878616333, -0.0360013023018837, -0.010658547282218933, 0.046308547258377075, 0.03613334894180298, -0.007787466049194336, 0.045562535524368286, 0.038873091340065, -0.11692193895578384, 0.035965561866760254, 0.08831210434436798, 0.016552895307540894, -0.013174667954444885, 0.11056709289550781, -0.12610501050949097, -0.06588093191385269, -0.06523924320936203, 0.1247151792049408, -0.13960643112659454, 0.01431506872177124, -0.1398182213306427, -0.004746362566947937, 0.05380001664161682, -0.03375399112701416, 0.14011356234550476, 0.0004594773054122925, -0.07358764111995697, 0.03721971809864044, 0.0750647634267807, -0.0002867579460144043, 0.1234770119190216, -0.09135356545448303, 0.06158572435379028, 0.08196002244949341, 0.07169120013713837, -5.294382572174072e-05, 0.041203200817108154, -0.11323445290327072, -0.11326973140239716, -0.008971527218818665, -0.01809026300907135, 0.1071743369102478, 0.10480737686157227, 0.09786774218082428, -0.06611136347055435, -0.11331033706665039, -0.13538847863674164, 0.05223733186721802, -0.13006001710891724, -0.14408619701862335, -0.07294534146785736, -0.12186475843191147, -0.05688167363405228, -0.09086720645427704, -0.0740501806139946, 0.13722524046897888, -0.027199946343898773, 0.11973357200622559, 0.003202483057975769, -0.018560901284217834, -0.042259469628334045, -0.10317641496658325, -0.11596772074699402, 0.09994247555732727, -0.04447900503873825, -0.14072619378566742, 0.13246285915374756, 0.0026773959398269653, -0.0965835452079773, -0.11345705389976501, -0.12121253460645676, -0.12656313180923462, 0.13061413168907166, 0.09951981902122498, 0.01180538535118103, -0.12301519513130188, -0.03775174170732498, -0.13558994233608246, 0.04974162578582764, -0.03832445293664932, -0.03088744729757309, -0.04503527283668518, 0.06767287850379944, 0.0781283974647522, 0.031618520617485046, -0.01807466149330139, -0.014264017343521118, -0.002522110939025879, -0.10748299956321716, 0.14084026217460632, -0.06225027143955231, 0.08397656679153442, -0.08091533184051514, 0.0009689629077911377, 0.04941070079803467, -0.1325279325246811, 0.06620761752128601, -0.11048243194818497, 0.020141765475273132, -0.028622038662433624, 0.08273763954639435, 0.1402818262577057, 0.03252874314785004, -0.00412142276763916, -0.07151129096746445, 0.05381426215171814, -0.06947292387485504, 0.05962108075618744, -0.06255988031625748, 0.0979062020778656, 0.11071211099624634, 0.08850562572479248, 0.0014458298683166504, 0.06693562865257263, -0.13152509927749634, 0.11705386638641357, -0.037500664591789246, 0.05261920392513275, -0.024441920220851898, -0.04846666753292084, -0.0677817091345787, 0.09310102462768555, -0.07852674275636673, -0.025453276932239532, 0.07281109690666199, 0.01454731822013855, -0.12144554406404495, -0.143525630235672, -0.07017303258180618, 0.1331249177455902, -0.10262773931026459, 0.07954952120780945, 0.10331909358501434, -0.059827543795108795, -0.06374044716358185, -0.10384167730808258, 0.022514015436172485, -0.020177900791168213, 0.007012620568275452, 0.06260795891284943, 0.06059865653514862, -0.045538075268268585, 0.009913265705108643, 0.034286871552467346, 0.003072410821914673, 0.02888341248035431, -0.05846966803073883, 0.11830970644950867, -0.014804750680923462, -0.018467307090759277, -0.12954479455947876, -0.10462570935487747, 0.004489868879318237, -0.02232229709625244, -0.07257001847028732, 0.07555358111858368, -0.012921914458274841, 0.05076180398464203, 0.12157067656517029, -0.06635875254869461, -0.07103893905878067, -0.02900422364473343, -0.012222647666931152, -0.0721922516822815, -0.03465316444635391, -0.004160389304161072, 0.06474421918392181, 0.13353577256202698, 0.1068832278251648, 0.015275955200195312, -0.009095683693885803, 0.03697246313095093, -0.0058920979499816895, -0.018942400813102722, 0.049633413553237915, -0.11743307113647461, -0.12274996191263199, 0.0005846619606018066, -0.043748438358306885, -0.07139244675636292, -0.13437001407146454, 0.09668594598770142, -0.005750969052314758, -0.07754899561405182, -0.058795057237148285, 0.03794679045677185, -0.10467863082885742, 0.009270235896110535, -0.0017799437046051025, 0.04917043447494507, 0.05725809931755066, -0.09430718421936035, 0.06232362985610962, 0.10899189114570618, 0.009292379021644592, 0.07353340089321136, -0.054644398391246796, 0.02866967022418976, 0.04217520356178284, -0.06666695326566696, 0.08911652863025665, -0.13647077977657318, -0.05421839654445648, -0.08492645621299744, -0.08568413555622101, -0.08746155351400375, -0.13600796461105347, 0.02477075159549713, -0.028552383184432983, -0.12153378129005432, -5.936622619628906e-05, -0.02404395490884781, 0.05954308807849884, -0.11305760592222214, -0.0406058132648468, 0.02970963716506958, 0.06118278205394745, 0.010919108986854553, 0.03911522030830383, 0.14428475499153137, -0.05000027269124985, 0.09837253391742706, 0.12433069944381714, -0.1276833564043045, 0.034914419054985046, 0.08175992965698242, -0.02251480519771576, 0.07965967059135437, 0.004909485578536987, 0.10988175868988037, 0.003107801079750061, -0.09240815043449402, 0.1096155047416687, 0.0429266095161438, 0.12279799580574036, 0.03583084046840668, 0.07664428651332855, 0.08999612927436829, 0.024304524064064026, -0.033553555607795715, 0.02981068193912506, -0.10063937306404114, 0.004931032657623291, -0.046392180025577545, 0.00912564992904663, -0.11428051441907883, 0.08819353580474854, -0.13316765427589417, 0.06181131303310394, 0.0950549989938736, -0.13228479027748108, 0.13041043281555176, -0.10729824006557465, -0.02834305167198181, 0.0747954249382019, -0.04576984792947769, 0.12863147258758545, -0.06367490440607071, -0.019324541091918945, -0.09435133635997772, -0.06696242839097977, 0.140851229429245, 0.108551025390625, 0.010627657175064087, 0.011867791414260864, -0.12248417735099792, 0.10896730422973633, -0.02164030820131302, -0.06020231544971466, -0.11486708372831345, 0.11867162585258484, 0.06844307482242584, 0.08693867921829224, 0.014945492148399353, -0.09794320166110992, 0.05912564694881439, 0.01664632558822632, 0.04843604564666748, -0.035941265523433685, -0.06811510026454926, 0.1184912919998169, 0.04838435351848602, -0.058580733835697174, 0.012889191508293152, -0.03137543797492981, -0.012343272566795349, 0.08093863725662231, -0.11488091945648193, 0.1306302845478058, 0.09714724123477936, 0.00012402236461639404, -0.05903897434473038, 0.02942921221256256, -0.09553824365139008, 0.09375457465648651, -0.07633446156978607, 0.027579262852668762, -0.14200375974178314, 0.06911960244178772, 0.09770908951759338, 0.1083369255065918, 0.011781573295593262, 0.08522230386734009, 0.04921349883079529, 0.09679508209228516, 0.08145081996917725, -0.12628498673439026, 0.015216201543807983, -0.0492071658372879, -0.06892063468694687, 0.10103079676628113, -0.0206582173705101, 0.022421851754188538, 0.0908791720867157, 0.0971568375825882, 0.07702893018722534, -0.025199756026268005, -0.12866175174713135, -0.13856185972690582, 0.045369550585746765, -0.0017128735780715942, -0.09119419753551483, 0.0630369484424591, 0.13101375102996826, 0.08348122239112854, -0.02036149799823761, 0.019503623247146606, -0.09206780791282654, 0.06812630593776703, -0.11185421049594879, 0.09964954853057861, -0.06592606753110886, -0.057246170938014984, -0.12089881300926208, -0.03490380942821503, -0.013961657881736755, -0.06652964651584625, 0.10274651646614075, 0.08283588290214539, -0.12738710641860962, -0.014438197016716003, 0.04852817952632904, 0.13925647735595703, -0.0345129519701004, 0.08861315250396729, -0.008086204528808594, -0.05535966157913208, 0.08832895755767822, -0.1286177784204483, 0.12092605233192444, 0.14416852593421936, -0.03940766304731369, 0.05701650679111481, 0.14393404126167297, 0.04351557791233063, 0.05644559860229492, 0.052999839186668396, -0.05905216932296753, 0.035232558846473694, -0.07692811638116837, 0.12325188517570496, -0.06185070425271988, 0.032996296882629395, -0.041811518371105194, 0.07218287885189056, 0.0023791640996932983, 0.07936447858810425, -0.03908420354127884, -0.08469896763563156, 0.05533802509307861, -0.08123046904802322, -0.11850555986166, 0.05576629936695099, -0.08680915832519531, -0.054252833127975464, -0.03604041039943695, 0.010249048471450806, -0.04998975992202759, -0.05194736272096634, -0.03627758473157883, 0.10115058720111847, 0.04321862757205963, -0.06948957592248917, -0.09977047890424728, 0.0033443421125411987, 0.046240732073783875, -0.0030204057693481445, 0.08449381589889526, 0.12140381336212158, 0.042304039001464844, 0.04760226607322693, 0.08373939990997314, -0.04944710433483124, 0.02560281753540039, 0.11669468879699707, -0.06911807507276535, 0.011233672499656677, -0.05643009394407272, -0.11098457872867584, 0.07645143568515778, 0.11533355712890625, -0.07797626405954361, 0.054095834493637085, 0.04426020383834839, 0.05635872483253479, 0.07945263385772705, 0.1347522735595703, 0.10955226421356201, -0.12629686295986176, -0.05658426135778427, 0.07665808498859406, -0.0823981761932373, 0.028341665863990784, -0.06187809258699417, 0.028666943311691284, 0.07042814791202545, 0.04536700248718262, 0.10485197603702545, -0.01736888289451599, 0.07835669815540314, 0.046662718057632446, -0.04548826068639755, -0.10194075107574463, 0.1320514678955078, -0.04303447902202606, 0.10871869325637817, 0.09098124504089355, -0.005812227725982666, -0.11922402679920197, 0.01161983609199524, -0.06977572292089462, 0.03755880892276764, -0.057372480630874634, 0.11124855279922485, -0.13022656738758087, -0.03885632008314133, 0.022761821746826172, 0.013769373297691345, 0.11857855319976807, -0.04560552537441254, -0.11521812528371811, 0.09556348621845245, 0.04033224284648895, 0.09508135914802551, -0.08542698621749878, -0.08477601408958435, -0.05830472707748413, 0.010262027382850647, 0.04891011118888855, -0.08294425904750824, -0.013589531183242798, -0.02494637668132782, 0.131698876619339, -0.05205395817756653, 0.13987326622009277, -0.08852657675743103, -0.05947592854499817, -0.10856249183416367, 0.10633352398872375, -0.09925784915685654, 0.05974610149860382, -0.053038664162158966, 0.143833726644516, 0.020359769463539124, -0.1253451704978943, 0.024841025471687317, 0.01754845678806305, -0.13960447907447815, 0.028967201709747314, 0.13771188259124756, 0.10876917839050293, -0.0020100176334381104, -0.07835286855697632, 0.10044032335281372, -0.16838903725147247, 0.37220636010169983, 0.3267345130443573, 0.17657247185707092, -0.14078368246555328, -0.3548915684223175, -0.21758389472961426, 0.36749282479286194, -0.3469254672527313, -0.36088529229164124, -0.027241289615631104, 0.12024950981140137, -0.3761850893497467, -0.35091036558151245, 0.0020548999309539795, -0.1267821490764618, 0.2633202373981476, 0.10851773619651794, -0.3280816972255707, -0.3406628668308258, 0.2595677673816681, -0.06702107191085815, -0.1653432846069336, 0.11905157566070557, -0.07428330183029175, 0.18076053261756897, 0.09584805369377136, -0.16364865005016327, -0.30293452739715576, 0.20460811257362366, -0.22708511352539062, -0.04180440306663513, 0.05167841911315918, -0.21996280550956726, 0.20588651299476624, -0.2658555209636688, 0.09283050894737244, 0.04042363166809082, 0.13867929577827454, -0.37094083428382874, 0.021833300590515137, 0.18425998091697693, -0.24197930097579956, 0.09352776408195496, 0.0014809668064117432, 0.32064613699913025, -0.08003276586532593, 0.0025822222232818604, -0.16439086198806763, -0.09315043687820435, 0.10820254683494568, -0.3645258843898773, 0.28672662377357483, 0.2717946469783783, 0.16006633639335632, 0.2829432189464569, -0.11765524744987488, 0.08609095215797424, 0.019228845834732056, -0.26136037707328796, -0.145306795835495, -0.13418126106262207, -0.09345301985740662, -0.3356092572212219, -0.26581859588623047, -0.0358925461769104, -0.057497113943099976, -0.3430958390235901, 0.08075869083404541, 0.20579954981803894, 0.3147740066051483, 0.3180963099002838, -0.2641087770462036, -0.12113085389137268, -0.17930518090724945, 0.06932267546653748, 0.10128244757652283, 0.08409193158149719, 0.220871239900589, 0.19940558075904846, -0.20287123322486877, 0.2594657838344574, 0.2549630105495453, 0.05001795291900635, -0.32883819937705994, -0.23181523382663727, 0.10532969236373901, 0.13067826628684998, 0.3524329960346222, 0.1923660933971405, 0.1369907557964325, -0.012891232967376709, 0.2577225863933563, -0.13757377862930298, 0.1538948118686676, -0.18001966178417206, -0.0035277605056762695, 0.22337499260902405, 0.17342916131019592, -0.08481699228286743, -0.004785865545272827, -0.20982062816619873, 0.175072580575943, 0.2543253004550934, 0.13010379672050476, -0.3657419681549072, -0.2705671191215515, 0.2530305087566376, -0.03579610586166382, 0.1535322070121765, 0.1842767596244812, -0.07323193550109863, -0.14668047428131104, -0.2351984679698944, 0.09562966227531433, 0.1282210350036621, -0.043341487646102905, -0.242706298828125, -0.16102761030197144, -0.01347014307975769, 0.11410081386566162, -0.08377063274383545, -0.16138938069343567, -0.17404377460479736, 0.22368237376213074, 0.09053069353103638, -0.202979177236557, -0.15439316630363464, -0.21222373843193054, 0.03617048263549805, -0.10151633620262146, -0.0008462965488433838, -0.039549559354782104, -0.2188354730606079, -0.22340643405914307, -0.19390717148780823, -0.10470262169837952, 0.03888368606567383, -0.1175692081451416, -0.008911192417144775, -0.029945790767669678, 0.22863498330116272, -0.11396747827529907, 0.23488342761993408, -0.1919216513633728, -0.20858371257781982, 0.08129841089248657, -0.14549878239631653, 0.12823104858398438, -0.13831183314323425, 0.19686618447303772, 0.24207299947738647, 0.016004890203475952, 0.05342996120452881, 0.23308005928993225, 0.14820408821105957, -0.21824699640274048, -0.008002758026123047, -0.22566938400268555, 0.19097167253494263, -0.04579147696495056, -0.001742631196975708, -0.1535973846912384, -0.13593855500221252, 0.03244513273239136, 0.2062678337097168, -0.12566322088241577, 0.023623406887054443, 0.2263016700744629, 0.22405335307121277, -0.04887646436691284, 0.23431536555290222, 0.09104219079017639, 0.22769072651863098, 0.007417410612106323, -0.21187371015548706, -0.06805098056793213, 0.07498261332511902, 0.13331851363182068, -0.2490519881248474, 0.194462388753891, -0.22426894307136536, 0.14648014307022095, 0.24666652083396912, 0.06160852313041687, -0.047182828187942505, 0.13765135407447815, -0.0742006003856659, -0.18518316745758057, -0.1774219274520874, 0.117545485496521, 0.1909310221672058, 0.010123193264007568, -0.2423974871635437, -0.2456519901752472, -0.05645185708999634, 0.1349548101425171, -0.16659879684448242, 0.06738519668579102, -0.13664251565933228, 0.20340365171432495, -0.06550776958465576, -0.052099794149398804, -0.21927011013031006, -0.22392290830612183, 0.016896188259124756, 0.040422797203063965, 0.13506683707237244, -0.21860727667808533, 0.04380515217781067, -0.03611487150192261, 0.14664894342422485, -0.11367398500442505, 0.07448172569274902, 0.1007423996925354, 0.1255844235420227, -0.08574730157852173, 0.08045271039009094, -0.04899558424949646, 0.0673198401927948, -0.1537257730960846, -0.19865232706069946, -0.2044965922832489, -0.1571567952632904, -0.10580691695213318, 0.03721299767494202, -0.05468431115150452, -0.1423189640045166, 0.002100139856338501, -0.07894918322563171, 0.15410760045051575, -0.2059013545513153, -0.0922771692276001, -0.16065824031829834, 0.03084772825241089, 0.013638943433761597, -0.014381498098373413, 0.2480490505695343, -0.09537094831466675, -0.035932302474975586, 0.06458932161331177, 0.20865297317504883, 0.18949410319328308, 0.028559625148773193, -0.09458166360855103, 0.08212962746620178, 0.15729635953903198, -0.005335330963134766, 0.1372584104537964, 0.20460528135299683, -0.1339421272277832, -0.055269062519073486, -0.22507885098457336, 0.05738833546638489, 0.17817255854606628, -0.04854777455329895, 0.039892226457595825, 0.07988348603248596, -0.005332320928573608, 0.19436019659042358, 0.03643035888671875, -0.24573642015457153, -0.20644652843475342, -0.2476913332939148, 0.010304093360900879, 0.13514196872711182, -0.03298261761665344, 0.22477823495864868, -0.044975727796554565, 0.051112592220306396, 0.22543516755104065, 0.126522958278656, -0.007975727319717407, 0.2408057451248169, -0.1493661105632782, 0.09311890602111816, 0.15788424015045166, -0.15479791164398193, -0.2348358929157257, 0.07996553182601929, -0.09484720230102539, -0.1261604130268097, 0.04972633719444275, -0.18135705590248108, 0.22485095262527466, -0.022441476583480835, -0.0800631046295166, 0.20899531245231628, 0.06961038708686829, 0.04763057827949524, -0.11953273415565491, 0.2382686734199524, -0.07614216208457947, 0.20793253183364868, -0.01837712526321411, 0.12540939450263977, 0.17578068375587463, -0.18612560629844666, -0.16662579774856567, -0.24721354246139526, 0.18031564354896545, 0.21499642729759216, -0.09136739373207092, -0.12244480848312378, 0.041847556829452515, 0.13459482789039612, 0.06170886754989624, -0.052102476358413696, -0.15901869535446167, 0.21381697058677673, -0.16190341114997864, -0.24157476425170898, -0.0998181402683258, 0.04985201358795166, 0.09292271733283997, 0.09666681289672852, -0.14482468366622925, -0.09594747424125671, -0.11116993427276611, -0.12106487154960632, -0.21056833863258362, 0.05117490887641907, -0.07270434498786926, -0.2406265139579773, -0.14597931504249573, -0.15013650059700012, -0.10784068703651428, -0.15447604656219482, -0.043354809284210205, 0.08959069848060608, -0.20232847332954407, -0.021416157484054565, -0.07194742560386658, -0.12781456112861633, -0.055512070655822754, -0.10595780611038208, 0.008036941289901733, -0.18046250939369202, 0.04740971326828003, 0.22953307628631592, 0.20715278387069702, -0.11208978295326233, 0.07705706357955933, -0.23630103468894958, 0.21048584580421448, -0.24914118647575378, -0.22340655326843262, -0.22440728545188904, -0.23216348886489868, 0.03385746479034424, -0.06610816717147827, 0.05983686447143555, -0.0154685378074646, -0.005370289087295532, -0.09032034873962402, -0.1483236849308014, -0.20931389927864075, 0.12614592909812927, -0.12889984250068665, -0.0508446991443634, 0.12142369151115417, -0.061915457248687744, -0.06303367018699646, -0.16666138172149658, -0.2139001488685608, 0.1199917197227478, -0.05640453100204468, 0.15720123052597046, 0.01645413041114807, -0.00031754374504089355, -0.2257002592086792, 0.005519509315490723, -0.056499183177948, -0.14265859127044678, -0.057859450578689575, 0.013069689273834229, -0.18837058544158936, 0.04157090187072754, 0.17395374178886414, 0.049386799335479736, 0.13777783513069153, 0.0673539936542511, -0.11383166909217834, -0.056813329458236694, -0.034733809530735016, 0.043177515268325806, -0.004116728901863098, 0.1161479651927948, 0.016767144203186035, -0.09141050279140472, -0.052916429936885834, -0.12008324265480042, -0.039798133075237274, 0.07096455991268158, 0.0013938099145889282, -0.13764092326164246, -0.12489497661590576, 0.05232901871204376, -0.12668545544147491, -0.11512650549411774, -0.08605620265007019, 0.13757076859474182, -0.041041769087314606, -0.05951056629419327, -0.09745857864618301, 0.09233376383781433, -0.02330600470304489, 0.02783331274986267, 0.03448079526424408, 0.04070703685283661, 0.0923888236284256, 0.007490172982215881, 0.014929920434951782, -0.009373292326927185, -0.11215999722480774, -0.0330314114689827, 0.1373738944530487, -0.10229525715112686, -0.09109275043010712, -0.1432281732559204, 0.008752301335334778, -0.13500215113162994, -0.07392885535955429, 0.13299855589866638, 0.05977955460548401, 0.07689894735813141, 0.024715080857276917, -0.12265513837337494, -0.06716311722993851, -0.11684970557689667, -0.08925241231918335, 0.04915332794189453, -0.04003261774778366, 0.14105579257011414, -0.105215884745121, -0.1231791228055954, 0.1425192654132843, -0.12468686699867249, 0.12282136082649231, 0.038866907358169556, -0.1315566599369049, 0.12571504712104797, -0.03929506987333298, -0.059515781700611115, -0.11259761452674866, -0.12208734452724457, 0.0321364551782608, -0.14177706837654114, 0.059312060475349426, -0.03566713631153107, 0.05065467953681946, -0.03533975034952164, 0.04991459846496582, -0.003942742943763733, 0.042423248291015625, -0.058722734451293945, -0.09928201138973236, 0.018382132053375244, -0.09212759137153625, -0.08947628736495972, -0.13879038393497467, -0.04600727558135986, -0.09644468128681183, 0.11240330338478088, 0.10401664674282074, 0.034246236085891724, 0.11727499961853027, 0.06950056552886963, -0.13596923649311066, -0.014441713690757751, -0.023429200053215027, -0.08763647079467773, 0.041108906269073486, -0.045049674808979034, -0.06901916861534119, -0.0016825944185256958, -0.09596573561429977, 0.11946117877960205, 0.09133400022983551, 0.13662901520729065, -0.025565065443515778, 0.04713994264602661, -0.005805552005767822, -0.11943639069795609, 0.06530079245567322, -0.10081864148378372, -0.052103154361248016, -0.06463786214590073, -0.1408112794160843, 0.005177155137062073, 0.02364593744277954, -0.010730668902397156, 0.10615357756614685, 0.00692063570022583, -0.02629084885120392, -0.07872790843248367, -0.08572283387184143, -0.020520567893981934, -0.08471233397722244, -0.09521558880805969, -0.0190904438495636, -0.025485090911388397, -0.08810693025588989, 0.08433495461940765, 0.12240937352180481, -0.09841343015432358, 0.06322118639945984, -0.06697412580251694, -0.014987155795097351, 0.13473975658416748, 0.018469423055648804, -0.13762207329273224, 0.13268789649009705, -0.006106838583946228, -0.07227472215890884, -0.0762261152267456, 0.1237742006778717, 0.002436026930809021, 0.07972267270088196, 0.09486269950866699, -0.05602195858955383, 0.012251049280166626, -0.09336552768945694, 0.12052962183952332, -0.07632486522197723, 0.0958719253540039, 0.036570653319358826, 0.08903717994689941, -0.10169589519500732, -0.004488736391067505, 0.07478991150856018, -0.005761280655860901, -0.002071008086204529, 0.07033637166023254, -0.10787816345691681, -0.028938084840774536, 0.06574457883834839, 0.07079017162322998, 0.13405820727348328, -0.028552301228046417, 0.03419917821884155, -0.07101795077323914, -0.024224840104579926, -0.07245991379022598, 0.10696420073509216, 0.0008792281150817871, 0.05871838331222534, 0.07939231395721436, 0.02689705789089203, 0.015360236167907715, -0.010564282536506653, -0.12226472795009613, 0.023255303502082825, -0.03197713941335678, -0.12131981551647186, 0.13447695970535278, -0.01538759469985962, -0.07203696668148041, -0.14051510393619537, -0.1329416036605835, 0.054964229464530945, -0.06589074432849884, -0.062349945306777954, -0.08351680636405945, 0.1165103018283844, -0.03469710797071457, 0.09355702996253967, 0.11458683013916016, -0.11190515756607056, 0.10768231749534607, -0.027562379837036133, 0.13824203610420227, 0.0737251341342926, -0.13981731235980988, 0.02681484818458557, 0.050738364458084106, -0.05236169695854187, 0.10945269465446472, -0.11952956020832062, -0.04579916596412659, 0.1375291347503662, 0.14096689224243164, 0.07210269570350647, -0.08616176247596741, -0.12418822199106216, -0.11735635995864868, -0.036082565784454346, 0.08176666498184204, 0.045697301626205444, -0.017528489232063293, 0.12981006503105164, 0.11334365606307983, -0.0674608051776886, -0.0625062808394432, -0.001693427562713623, 0.02995261549949646, -0.0010332763195037842, 0.055723488330841064, 0.0995853841304779, -0.026025816798210144, 0.07088300585746765, 0.01963070034980774, 0.05540427565574646, 0.05942094326019287, -0.03857892006635666, -0.06435433030128479, 0.06169493496417999, -0.0924123227596283, 0.0757775604724884, -0.09260999411344528, 0.09902061522006989, 0.05791391432285309, -0.035360515117645264, 0.08250243961811066, -0.047534115612506866, 0.03075028955936432, 0.04249641299247742, 0.014740973711013794, 0.028985321521759033, -0.0028653889894485474, -0.04169853776693344, 0.08052733540534973, 0.05693122744560242, 0.053837209939956665, 0.09744448959827423, -0.07552029192447662, -0.03353513032197952, -0.004114046692848206, 0.11647817492485046, -0.11493755877017975, -0.08279193192720413, -0.03438121825456619, -0.12329326570034027, -0.11403671652078629, 0.09887427091598511, 0.006733164191246033, -0.11611619591712952, -0.023832879960536957, -0.004745364189147949, -0.051314324140548706, -0.1207309439778328, 0.07855376601219177, -0.017827361822128296, 0.14092150330543518, -0.11054341495037079, -0.07923951745033264, -0.007498756051063538, -0.10051322728395462, 0.105189248919487, 0.11161991953849792, 0.13076037168502808, -0.09111475944519043, 0.1026962548494339, 0.10021838545799255, -0.05743120610713959, 0.01583823561668396, 0.0687798410654068, 0.10328646004199982, -0.13481083512306213, 0.14369884133338928, -0.03628964722156525, 0.05880960822105408, -0.08964647352695465, -0.11107400059700012, -0.09775043278932571, 0.0850660502910614, -0.07119689881801605, 0.0839049369096756, 0.043635293841362, 0.05741412937641144, -0.03210415691137314, -0.04565732926130295, -0.06753271073102951, -0.08068012446165085, 0.1330837607383728, -0.00784417986869812, -0.06189707666635513, -0.1342923790216446, 0.0062791407108306885, -0.14327490329742432, -0.0016996264457702637, 0.09113584458827972, -0.08313394337892532, 0.07930481433868408, -0.046042270958423615, -0.11101151257753372, -0.14295753836631775, 0.0717039406299591, -0.11043160408735275, 0.07047669589519501, 0.020666077733039856, 0.0784466564655304, -0.10849727690219879, 0.12622234225273132, -0.14376473426818848, -0.10955730080604553, 0.08655746281147003, 0.004905447363853455, -0.08105059713125229, -0.030276909470558167, -0.12845103442668915, -0.12561827898025513, -0.03096705675125122, 0.11010825634002686, 0.04310569167137146, 0.027217864990234375, -0.0382535457611084, 0.13137206435203552, 0.0013823658227920532, 0.048735976219177246, 0.0022941231727600098, 0.02252328395843506, 0.04813183844089508, 0.1107618510723114, 0.08308185636997223, 0.018472135066986084, 0.05770614743232727, -0.04340682178735733, 0.09866014122962952, 0.040518298745155334, 0.10892874002456665, -0.0225360170006752, -0.11784812062978745, 0.02851325273513794, 0.05870458483695984, 0.1166277527809143, 0.05594398081302643, 0.05332927405834198, 0.11486458778381348, -0.04960320144891739, 0.12743964791297913, 0.07400104403495789, 0.09639519453048706, 0.10294011235237122, -0.11792197078466415, 0.07517942786216736, 0.134427011013031, -0.10140018165111542, -0.012370720505714417, -0.08808829635381699, -0.03485329449176788, 0.02151031792163849, 0.07720743119716644, -0.04190346598625183, -0.13667646050453186, 0.07793696224689484, 0.08097779750823975, -0.026166565716266632, 0.12356409430503845, 0.11126908659934998, -0.03181283921003342, 0.005573779344558716, 0.025425106287002563, -0.0282842218875885, -0.035559527575969696, -0.06515393406152725, -0.0820828229188919, 0.07208411395549774, -0.04285964369773865, -0.06924426555633545, 0.12714621424674988, 0.02307724952697754, 0.10414274036884308, 0.13153386116027832, -0.02033286541700363, 0.02152995765209198, 0.1338210105895996, -0.09930931031703949, -0.043276347219944, 0.02053903043270111, -0.009792298078536987, 0.0384281724691391, 0.07589671015739441, -0.05938315391540527, 0.011238828301429749, 0.13058426976203918, -0.08167386054992676, -0.09787920862436295, -0.11069272458553314, 0.08627904951572418, -0.13239102065563202, -0.07019149512052536, 0.0974847674369812, -0.08652758598327637, 0.1173774003982544, -0.06747262924909592, 0.022834226489067078, 0.018894031643867493, -0.0035403668880462646, 0.08989983797073364, 0.12258905172348022, -0.09011894464492798, 0.0809493213891983, 0.038565099239349365, -0.002689659595489502, -0.10092196613550186, 0.04281604290008545, 0.10476560890674591, -0.12389058619737625, -0.13330353796482086, -0.14189594984054565, 0.033350810408592224, -0.04147318750619888, -0.044835224747657776, 0.1344011425971985, -0.036815524101257324, -0.09166119992733002, 0.012983351945877075, -0.07922131568193436, -0.042290098965168, 0.0762433111667633, 0.03331221640110016, -0.09904742240905762, 0.13741490244865417, 0.09765340387821198, -0.09839273244142532, 0.06287093460559845, 0.05931107699871063, -0.10356956720352173, -0.10143949836492538, -0.11951498687267303, 0.06429514288902283, 0.02514718472957611, 0.060999780893325806, -0.06339676678180695, 0.10853087902069092, 0.018430322408676147, -0.11517088115215302, -0.03632987290620804, 0.07366080582141876, 0.03173734247684479, -0.02208111435174942, -0.1008424162864685, -0.08978784084320068, 0.12449583411216736, -0.08268172293901443, 0.10228371620178223, -0.048312053084373474, 0.00144273042678833, -0.14055447280406952, -0.046918973326683044, 0.121673583984375, -0.12958620488643646, 0.07262516021728516, -0.12147224694490433, 0.02105201780796051, -0.13086168467998505, -0.11426256597042084, -0.1165233701467514, -0.05004908889532089, 0.01965261995792389, -0.10582426935434341, 0.036580368876457214, 0.08693303167819977, 0.11766380071640015, 0.12780311703681946, 0.095030277967453, -0.04250214993953705, -0.013302013278007507, 0.12770622968673706, 0.07180199027061462, -0.03827726095914841, 0.10897472500801086, -0.12614017724990845, 0.12353390455245972, 0.08075772225856781, -0.10586601495742798, -0.11772359907627106, 0.11287569999694824, 0.14239084720611572, 0.012595340609550476, -0.05639779567718506, 0.08218766748905182, 0.0651169866323471, -0.01801362633705139, 0.11555913090705872, 0.09355592727661133, 0.03598347306251526, 0.0749441534280777, -0.13520048558712006, -0.06760897487401962, 0.01582205295562744, 0.03925156593322754, -0.019732482731342316, 0.05450005829334259, 0.04396945238113403, -0.13339735567569733, 0.04552669823169708, -0.011735409498214722, -0.09932523220777512, 0.00487111508846283, -0.035498276352882385, -0.076649010181427, -0.13152572512626648, 0.12074741721153259, -0.0876556932926178, 0.019386157393455505, 0.11562880873680115, -0.018184006214141846, -0.0946008563041687, -0.13964048027992249, 0.023982197046279907, -0.07242313027381897, 0.010525956749916077, 0.04610447585582733, -0.040895797312259674, 0.09786790609359741, -0.018782705068588257, -0.05760324001312256, -0.09543567895889282, 0.04379226267337799, -0.08923742175102234, 0.03034098446369171, -0.018216818571090698, 0.09919671714305878, -0.07076052576303482, -0.07110389322042465, -0.018653422594070435, -0.0881587415933609, 0.05502782762050629, -0.0528707280755043, 0.059218138456344604, 0.08376957476139069, 0.0842837393283844, -0.026497669517993927, 0.0787702351808548, -0.0764307826757431, -0.14381062984466553, -0.01373659074306488, -0.10465435683727264, -0.11182236671447754, 0.03669005632400513, 0.12333992123603821, -0.05680164694786072, -0.008164852857589722, -0.10457176715135574, 0.02522692084312439, 0.04115021228790283, -0.022156566381454468, 0.1098162829875946, -0.11616683006286621, -0.019365571439266205, -0.08011750876903534, 0.1267370581626892, 0.12225601077079773, 0.1419782042503357, 0.13279694318771362, 0.05716584622859955, -0.11052136868238449, -0.09790646284818649, 0.03460107743740082, -0.12886503338813782, 0.09137772023677826, 0.0627496987581253, 0.03443814814090729, -0.12598100304603577, 0.10499806702136993, -0.015276044607162476, -0.06056949496269226, 0.07536005973815918, 0.012197345495223999, -0.06420716643333435, 0.03378264605998993, -0.09625265002250671, 0.13414937257766724, 0.12651148438453674, 0.0665658712387085, 0.07635857164859772, -0.14347977936267853, -0.08023544400930405, -0.1388912945985794, -0.07522959262132645, -0.11966652423143387, 0.10624277591705322, 0.0778718888759613, 0.08500227332115173, -0.0640764832496643, 0.1100122332572937, -0.020856745541095734, -0.03739622235298157, 0.07771603763103485, 0.09558486938476562, -0.10373982042074203, 0.1374136209487915, -0.014567911624908447, 0.03844287991523743, -0.14372219145298004, 0.016068458557128906, -0.07143499702215195, -0.0903756245970726, -0.0602647066116333, -0.0006723403930664062, -0.041119061410427094, -0.09246179461479187, 0.10334347188472748, 0.042940303683280945, -0.1343269646167755, 0.030277341604232788, 0.03545638918876648, 0.005303770303726196, 0.03504885733127594, -0.01208457350730896, 0.06312496960163116, -0.1016107052564621, -0.061542898416519165, 0.10812416672706604, -0.08942297846078873, 0.07081654667854309, 0.13355156779289246, -0.13198381662368774, -0.06323495507240295, 0.12317395210266113, -0.008727654814720154, 0.02849419414997101, 0.020542055368423462, 0.05948138236999512, -0.05947164446115494, 0.01873822510242462, 0.09832000732421875, -0.012176692485809326, -0.13242338597774506, 0.04989105463027954, -0.03684735298156738, -0.03045067936182022, 0.07527713477611542, 0.02529565989971161, -0.0873173177242279, -0.0666075050830841, -0.021940693259239197, -0.03566078841686249, -0.030556224286556244, -0.09865602850914001, 0.10456192493438721, 0.07485660910606384, 0.028484433889389038, 0.03268110752105713, 0.016897335648536682, 0.10792610049247742, 0.03266085684299469, 0.021987244486808777, -0.07934394478797913, 0.04814977943897247, -0.13503451645374298, 0.045522406697273254, -0.12511026859283447, -0.05973724275827408, 0.07620137929916382, -0.08596919476985931, 0.11493214964866638, -0.0797494500875473, 0.13671523332595825, 0.04448658227920532, -0.06254927814006805, 0.0880284309387207, -0.12782429158687592, -0.09143652021884918, -0.0904289186000824, 0.019000589847564697, 0.014180153608322144, -0.12414577603340149, 0.13928008079528809, -0.00013794004917144775, -0.0770757868885994, 0.0034476816654205322, -0.061957381665706635, 0.03982158005237579, 0.052251532673835754, -0.0409429594874382, 0.008414611220359802, 0.08588200807571411, -0.09388166666030884, -0.032185547053813934, -0.021293342113494873, -0.09549558907747269, 0.011755898594856262, 0.005304783582687378, -0.11658558249473572, 0.029608964920043945, 0.13776537775993347, 0.07677224278450012, -0.07829418778419495, 0.13212180137634277, -0.0992167741060257, -0.07338781654834747, 0.06366629898548126, 0.114826500415802, 0.13773933053016663, 0.12426373362541199, -0.07947885990142822, 0.03302827477455139, -0.09063158929347992, 0.0031874477863311768, 0.11958438158035278, 0.07107062637805939, -0.1332775354385376, -0.062118932604789734, -0.1217835322022438, 0.06799329817295074, -0.018322929739952087, -0.10551407188177109, -0.046122193336486816, 0.047366440296173096, 0.013362720608711243, 0.13543298840522766, -0.0019162893295288086, 0.04540236294269562, -0.04372374713420868, 0.017223522067070007, 0.005170673131942749, 0.12398326396942139, 0.06047895550727844, -0.08225683122873306, -0.12825220823287964, -0.1373283714056015, -0.05241737514734268, 0.01865781843662262, 0.13578787446022034, -0.014181822538375854, 0.056434646248817444, 0.07335600256919861, -0.11056262999773026, -0.11939828097820282, 0.054691821336746216, 0.06727707386016846, -0.06720864772796631, 0.02261887490749359, -0.14132249355316162, 0.001819327473640442, 0.035380423069000244, 0.00136624276638031, -0.022910691797733307, 0.06007756292819977, -0.0396735742688179, 0.10744398832321167, -0.12432219088077545, -0.08248846232891083, -0.12049774825572968, -0.13053925335407257, 0.10700514912605286, -0.03571963310241699, -0.1133810356259346, 0.029936999082565308, -0.10930045694112778, 0.007461294531822205, 0.06861549615859985, -0.03052113950252533, 0.07420048117637634, 0.029624521732330322, -0.11582227796316147, 0.0284082293510437, 0.09304596483707428, -0.03346029669046402, 0.01364123821258545, 0.018413737416267395, 0.012411892414093018, 0.037520378828048706, -0.13819733262062073, 0.1095111072063446, 0.06295210123062134, 0.01782432198524475, 0.026263684034347534, -0.11640360951423645, -0.04121139645576477, -0.00627821683883667, 0.08984565734863281, -0.20733578503131866, 0.04010367393493652, -0.11730039119720459, 0.2751125991344452, -0.32443004846572876, 0.03950968384742737, 0.2560689151287079, -0.2935582399368286, -0.01083296537399292, 0.17465457320213318, 0.15251818299293518, 0.04444870352745056, 0.1527867615222931, -0.2634778320789337, 0.31480100750923157, 0.00842982530593872, 0.24431905150413513, 0.08361324667930603, -0.04204756021499634, 0.16189631819725037, 0.35880187153816223, 0.37283048033714294, -0.3181501626968384, 0.022923320531845093, -0.2715207040309906, 0.2202204167842865, 0.2713386118412018, -0.26540571451187134, -0.021844685077667236, 0.26154330372810364, 0.24995043873786926, -0.2841799855232239, 0.25377675890922546, -0.0669146478176117, -0.32144826650619507, 0.07529017329216003, 0.17607936263084412, 0.2266732156276703, -0.25698670744895935, -0.2737531065940857, -0.2539510130882263, 0.2141970694065094, -0.33033379912376404, -0.0031871795654296875, -0.11106893420219421, 0.16502103209495544, 0.07422617077827454, -0.19086281955242157, 0.06601777672767639, 0.3478284776210785, 0.0622294545173645, -0.18729805946350098, 0.012654215097427368, -0.3466869294643402, -0.24250051379203796, -0.07020613551139832, -0.23552918434143066, 0.32006600499153137, 0.07336679100990295, 0.2927495539188385, -0.08606588840484619, -0.05256545543670654, 0.09533977508544922, -0.11238378286361694, -0.12883783876895905, -0.37077388167381287, 0.28473833203315735, 0.3420688211917877, -0.3742310404777527, -0.12505275011062622, -0.28588777780532837, -0.1534254252910614, 0.2877483665943146, 0.2021811306476593, -0.029327034950256348, 0.1614292562007904, 0.11287558078765869, 0.20641300082206726, -0.30373236536979675, 0.11683154106140137, -0.3579675555229187, -0.2485741823911667, -0.1408500075340271, -0.03682485222816467, -0.35668686032295227, 0.009406477212905884, 0.06034448742866516, -0.15000127255916595, 0.1225939691066742, 0.33027413487434387, -0.0645618736743927, -0.20129577815532684, -0.33481165766716003, -0.27599072456359863, -0.20904740691184998, -0.2794193923473358, -0.148596853017807, 0.2082149088382721, 0.11827343702316284, 0.3406684696674347, 0.3752608001232147, -0.13610757887363434, -0.14801809191703796, 0.051722556352615356, -0.30096638202667236, 0.20558205246925354, -0.06802526116371155, -0.3164805769920349, -0.28535622358322144, -0.2604433298110962, 0.10388433933258057, 0.1916426122188568, 0.19806316494941711, -0.06883874535560608, -0.1452139914035797, -0.11095872521400452, -0.17077985405921936, -0.06445541977882385, -0.22578555345535278, 0.1336243748664856, -0.23529881238937378, -0.15551364421844482, 0.16777506470680237, -0.1870023012161255, 0.059766173362731934, 0.18725591897964478, 0.24642843008041382, 0.12649741768836975, -0.06709149479866028, 0.1428588628768921, -0.008250683546066284, -0.07708504796028137, 0.0008141994476318359, 0.056077271699905396, 0.16762995719909668, 0.10494104027748108, 0.11937260627746582, 0.03739938139915466, -0.012582898139953613, 0.10497421026229858, 0.06013059616088867, -0.23922255635261536, 0.040418803691864014, -0.11102297902107239, -0.13257446885108948, 0.0966825783252716, 0.05112215876579285, 0.042335838079452515, -0.11859586834907532, 0.11551851034164429, 0.23460793495178223, 0.030584275722503662, 0.10275658965110779, -0.2193320095539093, 0.14862379431724548, 0.08684700727462769, 0.11263200640678406, 0.10425308346748352, -0.06575614213943481, -0.015006273984909058, 0.241816908121109, 0.1829339861869812, -0.17919710278511047, 0.19835591316223145, 0.2488078773021698, 0.032877832651138306, -0.19504553079605103, 0.048460155725479126, -0.05049020051956177, 0.17974671721458435, -0.24019601941108704, 0.06397587060928345, -0.002932220697402954, 0.019680708646774292, 0.17197299003601074, 0.004516184329986572, -0.201270192861557, -0.14583435654640198, -0.10010096430778503, 0.026662588119506836, 0.09647497534751892, -0.04666420817375183, -0.09866952896118164, 0.10970157384872437, -0.24307698011398315, 0.17469531297683716, -0.02906179428100586, 0.17395731806755066, 0.18890348076820374, 0.026706725358963013, 0.07908183336257935, -0.14140161871910095, 0.1791210174560547, 0.1463237702846527, -0.03926470875740051, 0.09744429588317871, -0.01400330662727356, 0.19532251358032227, 0.10291123390197754, 0.18226173520088196, -0.22724473476409912, 0.24358168244361877, 0.09314534068107605, 0.12154549360275269, 0.055707305669784546, 0.16419675946235657, 0.23535537719726562, -0.021297603845596313, -0.20513007044792175, 0.22956582903862, -0.05272287130355835, -0.12056905031204224, 0.15389642119407654, 0.13951963186264038, 0.03347054123878479, -0.015693068504333496, -0.04782521724700928, 0.22922739386558533, 0.15232118964195251, 0.14888396859169006, 0.15941953659057617, -0.13083982467651367, 0.05219879746437073, -0.21627241373062134, 0.14524483680725098, -0.24780192971229553, -0.2498510479927063, -0.24712049961090088, 0.15416687726974487, 0.026017487049102783, 0.0005685091018676758, 0.039763689041137695, -0.09461280703544617, -0.07591584324836731, -0.16839802265167236, -0.061054229736328125, -0.15383413434028625, 0.006577640771865845, 0.19642657041549683, -0.2066730558872223, 0.12294283509254456, -0.18594950437545776, -0.10358098149299622, 0.04888609051704407, 0.043016791343688965, 0.2050189971923828, -9.351968765258789e-05, -0.09521710872650146, -0.10339206457138062, 0.007329493761062622, -0.18745720386505127, -0.19601458311080933, -0.1069658100605011, 0.006422072649002075, -0.16883528232574463, -0.14270830154418945, 0.17849880456924438, 0.2310297191143036, -0.0783088207244873, -0.21448439359664917, -0.09571337699890137, 0.1009005606174469, 0.08113622665405273, -0.07749992609024048, -0.22017985582351685, -0.07517200708389282, -0.055898696184158325, 0.1439656913280487, -0.1239674985408783, 0.15004122257232666, 0.03467962145805359, -0.04189956188201904, -0.2227950096130371, 0.24681681394577026, -0.04457920789718628, 0.15729963779449463, -0.12931710481643677, -0.24345767498016357, -0.19927549362182617, -0.12812131643295288, -0.07961705327033997, -0.035303354263305664, 0.2085035741329193, -0.23056462407112122, 0.12477916479110718, 0.2103571593761444, 0.0016090571880340576, -0.15591052174568176, 0.007996052503585815, 0.05930972099304199, 0.11061519384384155, -0.07599228620529175, -0.08579283952713013, -0.1179426908493042, -0.24180352687835693, 0.08780220150947571, -0.18900370597839355, -0.12010037899017334, -0.002572685480117798, 0.1927260160446167, 0.2222839891910553, -0.18184003233909607, 